{
  "input_count": 24,
  "layers": [
    {
      "nodes": [
        {
          "weights": [
            1.079778890441248,
            -0.20869736098621333,
            0.5151215908583178,
            -1.8081055502398367,
            -1.1352918350555965,
            0.28068414092301075,
            1.274980125498388,
            -0.3500571594856836,
            -0.2398965085705675,
            0.424548209394385,
            0.5668409508205103,
            0.016728249413261086,
            -1.3086062655586672,
            -0.34116515086005306,
            -0.22115408235868672,
            1.9421072773429418,
            -1.2114457312982494,
            0.9382144615371364,
            -0.52415667251796,
            -1.4175457887646303,
            -0.05049220305640813,
            0.7546581550657596,
            1.1776396944503496,
            0.42915603449223844
          ],
          "bias": 0.8350112780101806
        },
        {
          "weights": [
            -0.6720588031967546,
            -0.8049845899123543,
            -0.544563950648576,
            -0.19104101506461796,
            2.812086042427182,
            0.8845594791483165,
            -0.3393809625700831,
            -0.5661432947353562,
            -0.20485361473549968,
            -0.27514737439551434,
            -0.7682379234844068,
            -0.09569175477244651,
            0.5499668447508145,
            0.5594900017877715,
            0.5419331048553303,
            -0.15175297517009878,
            1.4157450491126637,
            0.11050863700991782,
            0.5959619707876551,
            0.45243158798816197,
            0.05872326989954464,
            0.020630998628433296,
            -0.619892425586158,
            -0.12513506514682354
          ],
          "bias": 0.41624461723224
        },
        {
          "weights": [
            0.373872432221071,
            -0.9933801798550862,
            -1.1761532050430046,
            0.7163245196195889,
            -0.031272833174655595,
            0.1714650163207677,
            -0.14725130789268243,
            -0.5940984952789694,
            0.011264656978838411,
            0.3608519600724087,
            0.4609913082038378,
            0.5411531816989665,
            0.8375345640976584,
            0.477641065998917,
            0.6129307756419682,
            -0.12305280830995999,
            -0.3999073807894049,
            -0.7521803753288633,
            0.21705845692392756,
            -1.6164931249199805,
            0.7059054361313875,
            -1.1199520107941856,
            0.5371212580313933,
            -0.24693682899548292
          ],
          "bias": -1.1635355520105897
        },
        {
          "weights": [
            -2.018707510381676,
            0.3327222583066648,
            -0.5613712449109199,
            -0.009207160904881495,
            -0.42551301236600747,
            -0.3560624963055957,
            0.03355239711720291,
            -0.10413959523779263,
            -0.815359594755134,
            -0.7652030156614675,
            -0.44951540584391775,
            0.0524299396882342,
            -0.19462840319087427,
            -0.033198218284627184,
            0.42066376957097185,
            -0.3328568928943423,
            -1.0818134774601769,
            -1.1775996022646549,
            0.17108703515380108,
            -0.6624799456972637,
            -0.1105694326680802,
            0.7840739924403637,
            -0.13901098701016218,
            1.059191704052541
          ],
          "bias": 0.3936581995600045
        },
        {
          "weights": [
            -0.2748252787002378,
            -0.8885690508473632,
            -0.7420219240551045,
            -0.5002136315224452,
            0.9003244050731045,
            1.5691441059684819,
            0.19032597270031112,
            -0.6931197456864434,
            0.4246543672382648,
            -1.1437491980667784,
            0.6168934463125997,
            0.8034008992110411,
            -0.3115190638961767,
            -0.09092433020968171,
            0.6861249358566981,
            -0.39575119151888377,
            -0.30148272510082413,
            1.6559328783319516,
            -0.2715851904502829,
            0.4549641516440688,
            -1.296948860430041,
            0.3939242393412028,
            -2.376077326207512,
            -0.41002543850617523
          ],
          "bias": -0.8682987721519169
        },
        {
          "weights": [
            -0.02928883988437056,
            -0.8859572286712518,
            0.014930867132971204,
            -0.9235773889297683,
            1.2800038248217682,
            -0.5328773635306008,
            -1.1329531146395093,
            -1.230858738831674,
            -0.15817418877701866,
            -0.04129269196666761,
            0.15772260383225667,
            -0.009668316724364232,
            0.1393380129327098,
            -1.1276779146827025,
            0.42170376682145083,
            0.19015855242247828,
            2.02523276852161,
            -1.3088427281498674,
            0.8933299689716313,
            0.3985589664783105,
            0.9856420255775993,
            -0.0005959153400195288,
            1.1755041961467187,
            1.5400234269620838
          ],
          "bias": -1.1431948537592156
        },
        {
          "weights": [
            0.5499706082186777,
            2.192161864587217,
            0.8545641178811503,
            -0.8053771383546109,
            -0.3001097615725349,
            1.0192759097124635,
            1.090965258874119,
            -0.11684004826667006,
            -0.22981875499375193,
            0.007874558809161117,
            -0.22797633154403338,
            -0.49315024574347277,
            0.283928934213678,
            0.8274742355293531,
            0.8588944436319415,
            -0.8425638858761808,
            -0.6947233462560857,
            -0.6793924051790047,
            -1.2972079036691706,
            -0.4881946697735311,
            0.10692093540693386,
            0.5310129525599125,
            0.1602902856275982,
            1.4145359835878077
          ],
          "bias": 0.34405369044873246
        },
        {
          "weights": [
            -1.0720134080075148,
            0.1536723487177674,
            -1.0212565884634197,
            0.6989926680656104,
            -0.4504064273662868,
            -0.4766898013657133,
            -0.204765095168888,
            -0.5759462921717492,
            0.42580669545924743,
            -0.6654884349693055,
            0.44928793594392524,
            -0.6401883261680312,
            -0.32166229765735843,
            -0.27932096547979024,
            -1.4820427101210878,
            0.8146788692014127,
            0.20577558581924676,
            -0.5758873558013454,
            -1.2602744641013588,
            -0.2505853316543343,
            0.7254765657534434,
            0.9457905659230259,
            0.2621198641763065,
            -1.049399200105626
          ],
          "bias": 0.8777622439720165
        },
        {
          "weights": [
            0.061153989157101324,
            -0.28309878110597453,
            -0.2587314526961153,
            0.028717035349209052,
            1.2413702920657042,
            -1.8526879381301389,
            -0.7086774503538238,
            0.2315107182821616,
            0.7328764776224124,
            0.8884493061993197,
            0.5478605910737457,
            0.14729926772795596,
            -1.0371536356204107,
            0.21543932190089354,
            -1.0085939067698702,
            -0.9662797686593202,
            -0.6894469034055488,
            -0.6696442548053964,
            0.5570060730077427,
            0.47261062814332533,
            0.44487539733384207,
            -0.1090038515896642,
            -0.4478651840215879,
            -0.34197615972684514
          ],
          "bias": 0.7619070441261736
        },
        {
          "weights": [
            -0.6913738821041148,
            -0.5599911356014987,
            0.8065249173013607,
            -0.5000125913500587,
            -0.917707810334951,
            0.9784821648422574,
            -0.8994322101272134,
            -1.6229855797052322,
            -0.19953654640061885,
            0.7185600455160055,
            0.7855769087281392,
            -0.16371226832679667,
            3.298802296763935,
            0.9137281986927519,
            0.5092486643767236,
            0.6545714362030989,
            -0.8592442692704295,
            0.06105466197077189,
            -0.5024899222945821,
            -0.4992348821852234,
            0.7998179727241205,
            -0.23482859384418173,
            0.11832005933087023,
            0.3444684383874055
          ],
          "bias": 0.45767225190683164
        },
        {
          "weights": [
            -0.06949171458547501,
            -1.006487512988478,
            1.0373058126083887,
            -0.42582996973873866,
            0.9377287631033872,
            -1.113492197395268,
            0.10223378017335763,
            0.744741593919017,
            0.905932634564705,
            0.24140358850051186,
            -1.0274661534079956,
            -0.7574483708508082,
            -0.3693809129849892,
            1.6047312530556666,
            -0.38342565254771205,
            -0.2720662595536649,
            -0.31192890061326983,
            0.7680454959466252,
            -0.9983939718394321,
            -0.43391086176530175,
            0.08714655438952608,
            -1.0133924844904916,
            -0.30950022283899675,
            0.12577558382721896
          ],
          "bias": 0.4805216287683189
        },
        {
          "weights": [
            0.8468435083815337,
            -0.5512014445799078,
            -1.713720955561584,
            0.23147081505174524,
            -0.9458343822739737,
            0.2201473158354662,
            -0.40708581795405385,
            0.27150600679209763,
            0.23208578048924264,
            0.05249659639139603,
            0.7586779205406077,
            -0.42039700494404664,
            0.16265118967086606,
            0.29517466100576456,
            -0.0527739058437315,
            0.29936432256652,
            -1.2352548283655136,
            -0.12000428782417573,
            0.7952295626719671,
            -0.5046257237961751,
            1.0580966651707695,
            -0.4867847919391749,
            -0.11948220051606767,
            0.8728068197288593
          ],
          "bias": 0.9066797868589478
        },
        {
          "weights": [
            1.1253881344746735,
            -0.6587004081972021,
            -0.6186003648605088,
            0.4542768555558754,
            0.9619812442833349,
            0.7024329673626512,
            1.6302569544060974,
            1.3105971960444578,
            0.04075334302232758,
            -0.6613885707513119,
            0.08049486820253643,
            -1.0163968847303166,
            1.320292224406504,
            -0.40405551429386133,
            -0.2722859631099044,
            0.10248071573639203,
            -0.14034329755704925,
            -0.008763543856489656,
            -0.5758214156260841,
            0.192720627368078,
            0.10038795248485921,
            -0.36524614339195327,
            -0.2782336188997316,
            0.40015872764656957
          ],
          "bias": -0.5513883418712383
        },
        {
          "weights": [
            -0.5506367230806037,
            1.927124851982956,
            1.440043679191533,
            0.05991329476306642,
            -1.096925549338636,
            -0.4866660452272339,
            1.967083847194969,
            -0.0662201939397754,
            -0.5501753495051305,
            0.35619477806739086,
            -0.07205996678503646,
            -0.6847035180465924,
            0.5718466853741956,
            -1.002698004603173,
            -1.0079092078835394,
            0.6880818716992959,
            0.5345130983459526,
            -1.307694142588369,
            -0.2727229262155282,
            -0.16848207112201552,
            -0.06230073605386957,
            -0.016622800152323466,
            -0.2380356641453787,
            0.027295411631458072
          ],
          "bias": 0.08056461112490901
        },
        {
          "weights": [
            1.0353463142180326,
            -2.1752376939094322,
            -2.2310265777061042,
            0.027886554310375497,
            -0.08451568375249915,
            1.1834968125308012,
            -0.42815157558038786,
            0.8562898712828717,
            0.1157248977875078,
            0.8789687273191338,
            0.2546391787566973,
            -0.01979095364034336,
            0.7457848430512705,
            0.059507167127601235,
            1.3367506310133102,
            -0.6716693321448501,
            0.07558829041313678,
            0.25564376370347025,
            -0.5302678568930355,
            0.46382732693143325,
            0.6639559076431594,
            0.4762476899632629,
            -0.4838362654877476,
            0.34421641725794827
          ],
          "bias": 0.8134283263535997
        },
        {
          "weights": [
            1.356043420578453,
            0.09803454731052341,
            -0.23834225135603793,
            1.0372031026498165,
            -0.0365370956258578,
            -0.6081253028911837,
            0.5375010719123643,
            -0.24232065436629252,
            -0.7907567069751814,
            1.4647864985196613,
            0.19677811125934852,
            -0.3072691194540725,
            1.4205837301695496,
            0.4021133640798729,
            -0.290928975903744,
            -0.2311466473553693,
            0.5946176964573995,
            -0.18600994561203163,
            -0.09397796704630015,
            -0.21149093917246908,
            -1.2031526995486002,
            -0.3457434962470311,
            -0.09513163041703125,
            0.39510911899948464
          ],
          "bias": -0.5831460995331923
        }
      ]
    },
    {
      "nodes": [
        {
          "weights": [
            0.44303813221913013,
            -0.14916852565810637,
            0.10182024777583927,
            0.35281161764224855,
            0.029825314279174495,
            0.12473977366951602,
            1.6961050326284284,
            -0.08373904978428748,
            -0.5848370915612738,
            1.352687821251108,
            -1.0613217362484844,
            -0.6707832426596463,
            -0.2567992346047775,
            0.1662569093345997,
            -0.5129792994886466,
            -0.978318748371181
          ],
          "bias": 0.016645792686933517
        },
        {
          "weights": [
            -0.8265336213692591,
            -0.49064065316184646,
            1.2460969791682641,
            1.1533507447736033,
            -0.491061393044241,
            -0.5987364704690404,
            -0.3253958982048412,
            0.052098465868682456,
            -0.02966700720734379,
            0.5296764264403705,
            0.013281322080322011,
            0.060907673899191196,
            -1.0262884630520843,
            0.7917830934650303,
            0.13827012885153755,
            0.4021589985588398
          ],
          "bias": 0.06713880032002381
        },
        {
          "weights": [
            0.373991440282198,
            1.1971986874924014,
            -0.8223659350566944,
            1.2259457818791786,
            -0.5079625409764402,
            -0.7088816323322472,
            -0.7623109469218735,
            -0.5261655626143025,
            0.823669832149901,
            -0.17780372604228742,
            -0.7230568345408916,
            -0.7756166621808928,
            -0.36056576192469103,
            0.31552708007872543,
            0.7103409906563001,
            -0.14378938108760442
          ],
          "bias": -0.6876116104641709
        },
        {
          "weights": [
            -0.6106967841636609,
            0.8246029783931574,
            -0.21638436214359946,
            0.6860416427877856,
            0.6128106373860678,
            0.4824696170220641,
            -0.48727478991735673,
            0.5513816282890334,
            0.13191360785355732,
            -1.0736772563070591,
            0.2034816885983453,
            -0.7708893214945203,
            1.3308638886182413,
            -0.01145769066167368,
            0.4927341924917471,
            1.2302863202772212
          ],
          "bias": -0.3895553678602261
        },
        {
          "weights": [
            0.12271068756946418,
            -0.893816564467405,
            0.7696414160641182,
            -0.6475060097489121,
            0.8081135666440324,
            0.8306366272116652,
            0.6660829854897545,
            -0.018824408813283053,
            0.7916652413354134,
            0.7989870944633249,
            -0.24774655897093187,
            -0.2602912963551468,
            0.7474175350594817,
            2.2806139833733634,
            -0.6553588034630715,
            0.6216725088999177
          ],
          "bias": 0.19723698349840152
        },
        {
          "weights": [
            1.1839069339528678,
            -1.3451481141881079,
            -0.055945353443006066,
            -0.1793226323941452,
            0.6329995895073207,
            0.4665330113761461,
            0.406836653919688,
            0.8328620774305835,
            -0.17704727915453172,
            0.5162672902343961,
            -0.4457225037457185,
            1.5369079294123034,
            0.3775274089840846,
            -0.7410611078571903,
            0.941329735741352,
            0.7242732814366709
          ],
          "bias": 1.046038387516604
        },
        {
          "weights": [
            -0.7791051932206375,
            0.48272130760607457,
            1.7245754466326546,
            1.8499685703256115,
            0.5835532535268823,
            0.30815257591586104,
            -0.30090193721011593,
            1.355328841675514,
            0.13275741372822866,
            1.2927239710325718,
            0.07639672795584374,
            -0.32992448834743127,
            0.5656337345328682,
            -1.1562985262078926,
            -0.12895237649540092,
            1.2016966826273383
          ],
          "bias": -0.6129733375617912
        },
        {
          "weights": [
            1.2181297897877814,
            0.7831153768095127,
            -1.1610190740744484,
            -0.5967443735602855,
            -0.010724666656093104,
            0.3066642618361355,
            -0.31928211132566897,
            0.6631101909419543,
            0.0891851086438587,
            -1.197205892804726,
            -0.42030149830524505,
            -0.8724967591593022,
            -1.1667229955440797,
            0.07708492441301337,
            -0.6955074359458906,
            -0.7488982538742945
          ],
          "bias": -0.2712270418311402
        }
      ]
    },
    {
      "nodes": [
        {
          "weights": [
            0.2745412957717148,
            -0.7936876786606983,
            1.18840986856192,
            -0.04163815244808414,
            -0.7346108859116505,
            0.8503236376919943,
            0.8468302532980732,
            -0.9600109277347241
          ],
          "bias": 0.5367616161783776
        },
        {
          "weights": [
            0.3686811585682811,
            1.4332884860502912,
            -0.4794342428684736,
            -1.0269988660672966,
            0.31629974321306403,
            0.18003298100365434,
            0.23042541380001694,
            -0.035404821629828415
          ],
          "bias": 1.2897459503770534
        },
        {
          "weights": [
            0.05353380592523205,
            0.23752618739805004,
            0.4356765164021511,
            0.26979704486675377,
            0.2690242780631483,
            -0.47923362377800627,
            1.0183026953979397,
            -0.3036556866009398
          ],
          "bias": 0.46390889605070007
        },
        {
          "weights": [
            0.6565632940365175,
            -1.1181669483234087,
            -0.16239272741350988,
            0.7609440510031742,
            0.9298925319654532,
            -0.6997605789495845,
            -1.6272917572321266,
            -0.7940715994952978
          ],
          "bias": 1.1670705837829007
        }
      ]
    }
  ]
}