{
  "input_count": 24,
  "layers": [
    {
      "nodes": [
        {
          "weights": [
            0.1694595930591541,
            -0.48395457379812745,
            1.021662369723388,
            0.10708017754645327,
            0.9165686450311286,
            0.7332296653019819,
            0.4385372052783819,
            2.5979582318654963,
            -0.7883257929520149,
            -0.03957109418525817,
            -0.8068374581118328,
            -0.15664577336279184,
            1.3250396097685717,
            -1.2198426334205412,
            0.6445557539689437,
            0.9572181350936559,
            -0.35397322667513353,
            0.9509954843915979,
            1.5841815891594253,
            -0.15388996722550152,
            -1.3657453593809747,
            -0.5047428616319221,
            -0.12668312547425303,
            -0.6275086346588211
          ],
          "bias": 0.2784161908906222
        },
        {
          "weights": [
            1.2481781924113402,
            1.1638493316034846,
            -0.6301660618996885,
            -0.8467402665060396,
            -0.20459708408330474,
            0.042041681217271185,
            0.5797101426304507,
            -1.1896337562669477,
            -0.37334095168141923,
            -0.6580202187711176,
            -1.0854028711128376,
            -0.6422875762324631,
            0.018557610514663606,
            -0.6425783931630147,
            -0.7853212714389872,
            0.6896312834808398,
            0.7570352255085107,
            -0.4351288497190612,
            -0.2519794272054481,
            0.28380125107411136,
            -1.1574414840698974,
            0.5680941031989798,
            0.29850237058389284,
            -0.197425920903747
          ],
          "bias": 1.1191157533747484
        },
        {
          "weights": [
            0.050976981613557903,
            1.0986234570019693,
            0.30242664413457165,
            0.34239209091359274,
            -0.6798059085016068,
            0.47942964902335383,
            -1.1622417839380004,
            0.8911824231676521,
            0.18320202598422164,
            0.2958272923454474,
            -0.8295380092945082,
            0.24923037470207696,
            0.026643826717700422,
            0.10857133111496015,
            -0.7190340776281235,
            0.3874361260402005,
            -1.2781011647044453,
            0.21427327601557047,
            0.5529279345780679,
            -0.4942740801728102,
            -0.04294865233038109,
            -0.7394083763789169,
            0.35614715649045686,
            -1.2581449175366883
          ],
          "bias": 0.01364775225790979
        },
        {
          "weights": [
            -0.7636231818359146,
            -0.8001038925225261,
            0.7870760255199625,
            -2.2801279744244995,
            0.5215932885723059,
            -0.8502584861663127,
            0.20978093136702136,
            0.44254061019848423,
            -0.06990617847598918,
            -1.1471575571026276,
            0.11233198656168485,
            -0.3309032066970571,
            1.220770015625708,
            -0.9594087090952015,
            0.28126170964858066,
            0.5873679367942579,
            -1.0293872197457379,
            0.8027872314012121,
            0.011113566065187042,
            -1.1077624810881064,
            0.10918359481947898,
            0.7366958560236974,
            0.02557565768008397,
            -0.5315954360009958
          ],
          "bias": 2.376788673669112
        },
        {
          "weights": [
            0.37372803089696205,
            -0.826995624282156,
            -0.2920151258249839,
            -0.044414780603701354,
            -1.9533282078112102,
            1.478224518633858,
            0.3058811359254653,
            0.6103401821100906,
            0.43870887028536115,
            -0.4525023535466104,
            0.8020185909690398,
            -0.4796478999213061,
            0.4849798056360539,
            -0.07963443820086198,
            -0.9820198784673757,
            -0.24214762983992671,
            0.28906525430569047,
            -0.06836624262195695,
            -0.481827325003213,
            0.2539484370038836,
            1.1616875743760593,
            0.6155646067018274,
            -1.0208957520709774,
            0.14583044642542226
          ],
          "bias": 0.8690739902591357
        },
        {
          "weights": [
            -0.11865887955957327,
            0.7073536053317657,
            -0.045215870013762455,
            -0.6872041634741557,
            0.8134262795483005,
            0.20125947663754756,
            0.6726838921039084,
            -0.27045731910698356,
            0.5367403645274474,
            0.33024958301449014,
            0.6933299476696262,
            -1.1676746234121633,
            -0.12823106489257624,
            0.30703435550458247,
            0.5075478000997004,
            -0.6586804941900589,
            -0.7456657428467917,
            0.2238668807618992,
            -0.18014560068696353,
            -0.09026308266159253,
            -0.46837788677397,
            1.0282579463053,
            0.5560809559432391,
            0.8260919104782234
          ],
          "bias": -0.7512186776726416
        },
        {
          "weights": [
            0.4439228814844396,
            -0.598580144108686,
            0.3091637274553679,
            -0.7314411941214838,
            -1.265038505808432,
            -0.07901443798920485,
            0.13986262528407345,
            -0.9848973958846684,
            -0.23454351303238008,
            -0.2822182506111043,
            0.45380017311712384,
            -1.049324176988931,
            0.4193421914912444,
            1.0938544690310064,
            0.841296336605366,
            0.08267359326491476,
            -0.7561381177598556,
            -0.6914083347550264,
            -0.505182699538367,
            0.15343831178287198,
            -0.07688424571615153,
            -0.6360036208806636,
            -0.2981727332824874,
            -0.6251951389586772
          ],
          "bias": 1.4676179727449299
        },
        {
          "weights": [
            -0.5663213051182758,
            0.14420036509982243,
            0.6156528699368052,
            0.5568013351775819,
            -0.906214406699603,
            -0.46263871407603196,
            1.0514385843359406,
            -0.16869462743886185,
            0.06548750106848725,
            -0.20969637285453968,
            1.0090309213424644,
            0.45290673062322867,
            0.8847177459500716,
            1.187880663814044,
            0.20739403659918748,
            -0.973322548208075,
            -0.22664412193670977,
            0.21899775828029355,
            -0.6383106364065783,
            -0.39725597032045024,
            0.38495224104611686,
            0.27249466203586586,
            0.8525898289268632,
            0.034963167736048295
          ],
          "bias": 0.19529230371046657
        },
        {
          "weights": [
            0.8820966503000107,
            -1.386708616741803,
            -1.5395947417359823,
            1.0280226226792801,
            1.2863776961754534,
            -0.23383458291610182,
            -1.511771585414441,
            0.3512887081613882,
            -0.2725220980736017,
            -0.3816869037883273,
            0.7435671021789315,
            -0.9978188610657134,
            0.23888605732056586,
            0.7446913553351067,
            1.3579163112178885,
            -0.7383075741085764,
            0.5852286568715642,
            -0.49121110179623184,
            -0.9961383560395954,
            -0.2304309202538795,
            0.17262960544006023,
            1.0831770423576061,
            -1.084784731364942,
            -0.48129725204131946
          ],
          "bias": 0.7249762775688395
        },
        {
          "weights": [
            0.8468336624124754,
            0.16739974685068038,
            -0.2017476266135754,
            0.07968737878276456,
            0.1525084632385027,
            -0.6469341961367404,
            -0.5074905951497626,
            0.8796461727367952,
            -0.35972365340381274,
            0.4042946780013879,
            0.1555970260239024,
            1.0234447018605917,
            -0.4655791103085181,
            -0.31984188407728575,
            1.7283101525632725,
            -0.9056813376303164,
            -0.12047708575440695,
            -0.5081374223006084,
            0.306629889053963,
            0.9316599502137828,
            0.08241897168345166,
            -0.41109681489363564,
            0.2877378501331595,
            0.05024638374534679
          ],
          "bias": 0.1634124551529479
        },
        {
          "weights": [
            -0.12429332990627082,
            -0.6127224787892945,
            0.43503549126495367,
            -0.7862090935511394,
            -1.2933792936804323,
            1.2709395656359381,
            0.7100306398109857,
            -0.912104950588228,
            -0.6957802269337212,
            1.7773052103873441,
            0.8030173535903946,
            -0.2973574316367502,
            0.2658372074694112,
            -0.6677620540291127,
            0.36957972093100405,
            -0.32003849820744446,
            -0.5738904127208904,
            0.3110643865320979,
            -0.11880280315990906,
            0.47284131410565083,
            0.5754392285349197,
            -0.596645583081041,
            0.05882501001403426,
            -0.5031290091290673
          ],
          "bias": 0.4755827613225674
        },
        {
          "weights": [
            -0.6956579909066248,
            -0.9994869744673508,
            -1.5195252892220679,
            -0.7605597700269083,
            0.35858834167107734,
            -0.3043515623165628,
            0.7827173986715422,
            -0.6365985815517679,
            -0.7149354436803952,
            0.5474165167866634,
            -0.9795903888320912,
            -0.9082575047080643,
            0.324844219312371,
            -0.6183826662550794,
            -0.17829838441537882,
            -0.1346397496613963,
            -0.025622166586505513,
            0.5521798835112097,
            -0.3120273023164013,
            -1.3705127340777452,
            -0.5284528948156328,
            -0.02630214365982618,
            -0.8757223172844467,
            -0.4999518363230685
          ],
          "bias": -0.05163333014862442
        },
        {
          "weights": [
            -0.17329288546486563,
            0.8044271440864996,
            0.5003311276163837,
            0.6186000794515261,
            -0.1862134344639146,
            0.15288310896365612,
            -0.6140999387047439,
            0.7163983914313261,
            -0.9578294031964307,
            -0.5661976226758899,
            -0.6162839751781621,
            0.43375648164558295,
            -0.5585707455981,
            -0.27596393232330296,
            1.4391227817422951,
            -0.43893704391216115,
            -0.9812410362677673,
            0.6106850026477896,
            0.5857448714812965,
            -0.11045859765079818,
            -0.8800015563899283,
            0.6306536425440852,
            -0.05037136542861706,
            0.8928412316285648
          ],
          "bias": 0.19293070611134985
        },
        {
          "weights": [
            -0.11856856943802961,
            1.2295277251533536,
            0.2545195441869475,
            -0.15433516868385316,
            0.6401099712125302,
            0.1179303832123463,
            -0.7584360252172626,
            0.17905562266919017,
            0.20653081508801358,
            0.4448178132497484,
            0.21456144606548935,
            0.3443727109120397,
            -0.07194133142535211,
            0.5251939978271147,
            0.894765390170045,
            0.45389984219771506,
            0.4821934542194454,
            0.5358828753226932,
            -0.7067240977442569,
            -0.7568965325655299,
            -0.16823837449174783,
            -0.6435074912606472,
            0.5867626255836457,
            0.9477783332141613
          ],
          "bias": -0.01601381393161752
        },
        {
          "weights": [
            -0.5237789455250437,
            0.2559139423905767,
            0.6588746938573952,
            -0.14398548256916893,
            0.4134677733095203,
            -0.6536784707191581,
            -0.22161715073745583,
            0.022310397354719944,
            0.22791492268320035,
            0.34421823346376357,
            -0.259568495499895,
            0.7798312570664752,
            -0.011421291793911818,
            0.24294871563425663,
            0.16560637877050272,
            -1.715520197462316,
            -0.07256064496084523,
            -0.475296721791598,
            -0.5637614012558103,
            1.0664683082368807,
            0.5779689172570304,
            0.5914760952357849,
            -0.25453767778116293,
            -0.42121256961773706
          ],
          "bias": -0.4972963469255141
        },
        {
          "weights": [
            1.4758876991215069,
            0.4550639590236708,
            -0.6873422566460733,
            0.6266948801072869,
            0.043411942352956465,
            -0.12413178975841702,
            0.5927499782891952,
            -0.032945374350851514,
            0.4191691315370798,
            -0.6213379137029147,
            -0.19559007394365246,
            0.2474004760995695,
            -0.4610607984149486,
            -0.10278680963061604,
            0.5959163900449245,
            0.10898812622998688,
            0.3604975051757219,
            0.9640968511381145,
            0.7441656702977564,
            -0.2242691961608129,
            -1.6038161087949023,
            0.38762722867516186,
            0.19694599383541198,
            0.4212320112744079
          ],
          "bias": 0.3033337101532403
        }
      ]
    },
    {
      "nodes": [
        {
          "weights": [
            0.9126069734789456,
            -0.3031284838232595,
            0.010530185841771636,
            0.699268089091567,
            -0.6572204473237515,
            -0.08729877310132333,
            -0.562291740456427,
            -0.8632080610019992,
            0.7410071385090635,
            0.3744021210592329,
            -0.8373974993504845,
            0.23039659909510962,
            0.6614807881163804,
            0.7014513161784434,
            0.30743110294680476,
            -0.9704718696264822
          ],
          "bias": -0.6322285834760665
        },
        {
          "weights": [
            -0.014902030025040924,
            -0.5566952292686049,
            -0.22766325655962044,
            -1.7564684111021354,
            0.3538157383545284,
            -1.6021011361092001,
            -1.1424814520501807,
            -0.7145052154673941,
            -0.6254607444182596,
            0.22977711758196154,
            -0.6390098741885544,
            -0.8011699841480966,
            -0.7396118505467361,
            -0.08054639783674902,
            -0.003286233164659161,
            -0.7578566114919838
          ],
          "bias": 1.0266120689702496
        },
        {
          "weights": [
            -1.3399243642239154,
            0.6231183817301768,
            1.0682004331369936,
            0.04768259212284737,
            0.5582763314501349,
            0.6233085125391973,
            0.6047051012580611,
            0.5069008186147471,
            -0.09292565240021619,
            -0.999648630239724,
            0.3442514790836972,
            0.1010416357532558,
            -0.7779817466047007,
            -0.14238453690016703,
            -0.5071905656668492,
            -1.8843931024323222
          ],
          "bias": -0.41977538430393263
        },
        {
          "weights": [
            -1.2004600817341542,
            0.6663163531735035,
            -0.3312407886068829,
            -0.4755298393556258,
            1.0989542068070608,
            -0.9093799681834074,
            -0.426668475615842,
            -0.5654047823500754,
            0.49754733913040755,
            0.003468271479460272,
            -0.35708524850974765,
            -0.42570738818696363,
            -0.9443667313010994,
            0.24260550490162755,
            -0.6267378356086964,
            -0.2084734009004504
          ],
          "bias": 0.09422166588859185
        },
        {
          "weights": [
            0.5459843181192106,
            0.6132671075752731,
            -0.6814944174003549,
            0.8559447410846558,
            -0.1890906181308436,
            -0.4680107220928166,
            -1.1427158143370726,
            -1.0450276591334702,
            -0.18513941368778558,
            -0.6177960598294326,
            1.771097211357865,
            -0.5522590248267216,
            0.47450003256007,
            0.902757037725576,
            0.10902211693566236,
            -0.6190782162180734
          ],
          "bias": 0.9433600271372924
        },
        {
          "weights": [
            -0.1341535799361368,
            -0.4223722926320836,
            0.7542385091551934,
            -0.607296543605133,
            0.4872864028729179,
            -0.45824472969136265,
            -0.7815841592644649,
            0.10856811418939741,
            -0.49951876467717576,
            -0.47747484009294094,
            -0.2491782469163575,
            -0.9439507649101285,
            -0.8056718007222594,
            -0.5551275480629536,
            1.0076205426275415,
            0.4137420935658218
          ],
          "bias": 1.155655508857154
        },
        {
          "weights": [
            0.13258219723948844,
            -0.8240961866566322,
            -0.29576853585441826,
            -0.5792275286213817,
            -0.03484002013994193,
            -0.5641926417384369,
            -0.38826266935613396,
            0.1902261296195547,
            0.6940410451925294,
            0.11435034506597,
            -0.30105379510087016,
            -1.1032321805047993,
            0.3440863522548667,
            -0.20703906839372915,
            -1.7353337285323749,
            0.9532298035404081
          ],
          "bias": 0.5844867170917556
        },
        {
          "weights": [
            0.3441111462012463,
            0.07856505764582782,
            0.20292919399296747,
            0.8015977777016676,
            -0.22556322451450506,
            -1.6584162890835756,
            -0.02806090011434685,
            -1.418569477590888,
            0.7209257785153653,
            0.9876500411133313,
            -0.7763761414334712,
            0.5888031590992192,
            -0.5188665966820328,
            0.5241009614080667,
            -0.03579446329561772,
            0.24591927928291657
          ],
          "bias": -0.4849566498021172
        }
      ]
    },
    {
      "nodes": [
        {
          "weights": [
            -0.19953422604685983,
            0.8790813937821889,
            0.8487155042117739,
            0.5728186398358387,
            0.0031418172011542164,
            0.20456074428631243,
            0.32398494588127524,
            0.8688717413424274
          ],
          "bias": 0.4053781860623906
        },
        {
          "weights": [
            0.38443014339670645,
            0.7024648464150461,
            -0.3936215912149633,
            -0.945854402394654,
            1.029237806060488,
            -0.2884801725216339,
            -0.5675699186680057,
            0.18115480709646165
          ],
          "bias": -0.6064936009658483
        },
        {
          "weights": [
            0.6643513628801614,
            0.27451283345015387,
            -0.05414199514143353,
            -1.1488469188589265,
            0.1407406420643844,
            0.1687483782768245,
            0.39620808055024304,
            0.5796532919446522
          ],
          "bias": -1.289039763926607
        },
        {
          "weights": [
            -0.31612821174170025,
            -0.7014078500274039,
            0.07181690833892235,
            -0.4033733262715242,
            1.0720701405099071,
            0.16694584976934745,
            -0.2155301461954248,
            -0.32215951504810203
          ],
          "bias": 0.26915185836407174
        }
      ]
    }
  ]
}