{
  "input_count": 24,
  "layers": [
    {
      "nodes": [
        {
          "weights": [
            -0.36656566801953316,
            -0.2840769222376033,
            -0.23105618662423602,
            0.0547780199090219,
            0.682867770732396,
            -0.7273502412530738,
            0.5231744171883729,
            0.7317539803368173,
            -0.6574667946519673,
            0.8477372300428754,
            0.7230305887842299,
            1.3907227928427401,
            1.0516403660912925,
            0.8104091561883756,
            0.9987592702881136,
            -0.4152121260054713,
            1.1204649040678758,
            -0.12716286079548472,
            0.4946619574530638,
            0.29460141180100907,
            0.2303920293628022,
            -0.1782395503013087,
            -0.8264855941558286,
            -0.3413713347626872
          ],
          "bias": 0.012748745624046001
        },
        {
          "weights": [
            -0.556869505151734,
            1.1394386252961177,
            0.18695742117437578,
            0.7819553688688836,
            0.291092322771627,
            0.19988742483124783,
            -0.9273213903434618,
            -0.410502879369589,
            -0.9345959609531498,
            -0.481121381897851,
            0.018657538769005694,
            -0.2722236441377821,
            -0.6986850150014211,
            0.7455182118999779,
            -0.4359384707560608,
            0.011525350900114112,
            0.5391179482347799,
            0.44070663337500215,
            -0.9092080802744649,
            0.5814018390982423,
            0.459160541711982,
            -1.2055019790162285,
            0.325012359019882,
            0.31474279659365845
          ],
          "bias": -0.7750075740972484
        },
        {
          "weights": [
            0.11382037740994919,
            -0.05169681572853528,
            -1.3403524948814514,
            0.9629964384643025,
            0.06443645976343262,
            -0.7753867140463342,
            -1.1356335687048646,
            0.2307296663754294,
            -0.9356342611131567,
            -1.0494559662275333,
            -0.9786959812145773,
            0.6735950631603318,
            1.2468123778468165,
            0.7173833706501804,
            -1.083520926437535,
            0.3715181275606838,
            -0.738991669918279,
            0.10205500745661883,
            0.40542960536473005,
            0.052729502637538186,
            0.6040832467668245,
            -0.5497181375489415,
            -0.4345893140010826,
            -1.127560470513597
          ],
          "bias": -0.5883345203848152
        },
        {
          "weights": [
            0.39713210495476414,
            -0.8883787076614991,
            -0.8354049693150646,
            -1.1764621583861068,
            0.8951030338520307,
            0.674487820282855,
            -0.6189263466040459,
            -0.4277852419628744,
            0.4960243657392561,
            -1.409349395576705,
            0.14123987276288819,
            0.13357972454262035,
            -1.2816551098703612,
            0.5983387256069038,
            0.01296091892331519,
            -0.755228910110914,
            0.9530303519901212,
            -0.6137592000573876,
            0.045004964112105444,
            0.33673560805787184,
            -0.6701369050677762,
            0.1161136475191633,
            0.5023923195210873,
            0.7587061269849011
          ],
          "bias": 0.4336576905894344
        },
        {
          "weights": [
            1.2936356353273712,
            -0.9058940111731351,
            0.7393509043397174,
            1.1766434568573014,
            -0.4626020520862941,
            0.14337307135864713,
            -0.18579047986376504,
            0.18102184171382396,
            0.7014709687451692,
            -0.2825938990582408,
            -0.9095413311285576,
            0.6138458365892503,
            0.46255004565008384,
            -0.5021109954324238,
            1.4426326749329335,
            0.47090628001461654,
            0.23085395576633408,
            -0.3602358788292254,
            0.7311046929812106,
            0.573918055727386,
            -0.5990778289832295,
            0.1603885004386505,
            0.8008101991900781,
            0.4329095802827781
          ],
          "bias": 0.4337671908471656
        },
        {
          "weights": [
            0.3201533978789195,
            0.4248176945899105,
            -1.3371696147815495,
            -0.45964128736958687,
            0.3399828830702433,
            -0.8975583848009492,
            0.41824098061968584,
            1.1371583054462069,
            1.4133061364824284,
            -0.3342862401338735,
            0.38815424997569786,
            -0.03955682202334582,
            -0.5365263197835277,
            -0.14943444604207273,
            0.28611210335668164,
            0.17541042656993286,
            -0.1950636717026181,
            -0.32215236164923144,
            -0.7971586367615109,
            -0.7059850742320031,
            -0.04237784549405396,
            0.07980648931433604,
            0.03477652696372588,
            0.7644196136387175
          ],
          "bias": -1.126140040884708
        },
        {
          "weights": [
            0.10533790633946649,
            -1.1530441601666888,
            -0.21698858423733636,
            -1.4132327227782935,
            1.3383204919956526,
            -0.1581981899816739,
            -0.09315302939290984,
            -1.0096708739822855,
            0.036079143788263435,
            -0.301771415015931,
            0.38957652745419213,
            1.9526530412613132,
            -0.6271623055897212,
            0.5003823572945394,
            -0.021606984538937418,
            -1.102715095435585,
            -1.1212267243067662,
            -1.204142189819246,
            0.6090608478544947,
            -0.15879549864326065,
            -0.014499246292046727,
            0.33754489101806406,
            -1.5146605191389395,
            0.054717088164217394
          ],
          "bias": -0.4219054429088998
        },
        {
          "weights": [
            0.37930962253566514,
            -1.7372817469838253,
            0.7144301199513041,
            -1.3359189177814195,
            -0.30941329026978037,
            0.4639375031367845,
            -0.8865797156223042,
            0.9451979882188942,
            -0.966423860454755,
            -0.23696441186537945,
            -0.052321350054842244,
            -0.09525935282226664,
            0.3595894087830087,
            -0.9101722902358707,
            -0.131027262747302,
            0.6917475081704556,
            1.0306907410428063,
            0.2970389051658859,
            -0.24716547316364273,
            1.712504106475974,
            -1.0330003802657513,
            0.2811970778638496,
            -0.09873619961984936,
            0.9486612746918991
          ],
          "bias": -0.500502537068731
        },
        {
          "weights": [
            -0.532875310906953,
            0.8672821340529735,
            0.48695719158084655,
            -0.5210436377262482,
            1.321500106938615,
            -0.4823852175616168,
            0.4467405075196629,
            -0.394922565900125,
            0.004078575490307226,
            -0.02079363834150695,
            0.33532204272420746,
            -0.5715146170121098,
            0.5685488667947004,
            -0.8738146390593742,
            0.8445194947015783,
            0.623028564382854,
            1.3167674937277563,
            0.9099115491372534,
            0.07434752151846001,
            -0.6724170615666434,
            -1.9143300141348476,
            -0.3119636472957012,
            -1.4890500457022415,
            0.06322769124506418
          ],
          "bias": 0.1951121889522241
        },
        {
          "weights": [
            -1.9708437698388823,
            -0.9443431825216295,
            0.7223070662599856,
            -1.110843281201504,
            0.3284887866321803,
            0.6127478974329525,
            -0.5505143679502056,
            -0.13228586458445754,
            -0.7165384028785104,
            -0.7708286416779648,
            0.13639039190284705,
            -1.3546719660230253,
            -0.3466114154845375,
            -0.5869853304648356,
            0.9758382393922458,
            0.03492430551946944,
            -0.060479943041903426,
            0.22986729171100884,
            -0.5361569970854712,
            -1.94999833201457,
            -0.07205811089083561,
            -0.24004064102542483,
            0.40697022860448057,
            0.8621511747427232
          ],
          "bias": 0.12955365767338428
        },
        {
          "weights": [
            -0.6877705575993546,
            -0.3360758334604239,
            0.5856168800870966,
            -1.0088205867485192,
            0.1013074716547207,
            0.056758518087064246,
            0.5052119661846581,
            -0.08275338240063931,
            0.42713606492722367,
            -0.08163149472877929,
            -0.7097261163416791,
            -0.15734711221121958,
            -0.6201966157417063,
            0.17232311757819863,
            -0.3753056215945195,
            0.900020666040529,
            -0.3767968863325425,
            -0.12035502443707546,
            0.20827983466285455,
            -0.517529563930867,
            0.22003288955902003,
            1.544485795392411,
            -0.8544111551305685,
            0.5392485451126542
          ],
          "bias": 1.0964624876192015
        },
        {
          "weights": [
            0.00483481712275248,
            0.4670077526858026,
            -0.5328655707298648,
            -0.5766998935133683,
            -0.11956024817312891,
            1.1105381078579764,
            0.815329785272931,
            0.14024684715460797,
            -0.19426389205205583,
            -0.8944870463129919,
            0.07741688429762954,
            -0.5171410870079782,
            -0.20400206463204595,
            0.19279036450502335,
            -0.8165344303737669,
            1.0859836313650273,
            0.19969357984308145,
            0.5067669053822661,
            -0.5727822651981457,
            -1.08339473375109,
            1.256774548744187,
            -0.925375132660035,
            0.46847065430704926,
            0.46073158160953165
          ],
          "bias": 0.3493627616115562
        },
        {
          "weights": [
            -1.1576647150174562,
            1.025467309219436,
            0.7969889297207092,
            0.13064050010905454,
            -1.5644135178848035,
            0.8365704975323961,
            0.8481286779823298,
            0.1991089852855804,
            1.3544765181990446,
            0.16025907325552785,
            0.25588831044349813,
            -0.9965633609476742,
            -0.020440958706624407,
            0.3138932792140116,
            -0.14298976947230538,
            -0.333240623941591,
            1.0934288002205526,
            -0.25884791447972744,
            -0.2939669975622293,
            0.3895320229639533,
            0.8356240760291704,
            0.7594651854363694,
            0.5403950205424557,
            0.4868568915711583
          ],
          "bias": 0.684953201060276
        },
        {
          "weights": [
            0.3658246980365514,
            -1.1670507283349612,
            0.3362883495538043,
            -1.314279472805977,
            0.20544617487339123,
            -0.9924183678559396,
            0.03997336912983675,
            -0.4269107494784948,
            0.13471558210329085,
            -0.15002977084238261,
            -0.37386324697140494,
            0.9334903344096611,
            0.14221416798456105,
            0.29611358389486386,
            -0.8496132437736557,
            -0.48302711064010473,
            -0.43943403257054525,
            -1.4941429490107696,
            -0.8786436627642634,
            -0.5408170096087954,
            1.2654364265134808,
            0.22000537313427515,
            0.17810165273294964,
            -0.12669999380543034
          ],
          "bias": -0.773039110485789
        },
        {
          "weights": [
            1.0232516343550482,
            -1.9615649147026566,
            -0.9151170488929882,
            -0.7818440825607388,
            0.4983402757384776,
            1.3470631207197803,
            -0.9172225273223283,
            -0.5618355674170021,
            -0.2101106798066049,
            -0.10759423505156901,
            -0.4644525200511927,
            -0.12346302342184064,
            -0.0776167435730546,
            -0.8373063856353918,
            -1.4233135056762238,
            1.1754416204480371,
            0.3257004762485906,
            -0.9079347622536417,
            1.4117156166972453,
            -0.3870947779706484,
            1.3053314707922514,
            0.7041448911507976,
            -0.8502012277142508,
            0.08357177548501946
          ],
          "bias": 0.2482928195675166
        },
        {
          "weights": [
            -0.5256588421831528,
            -0.7961770763788515,
            -0.8301455194108331,
            0.15430511649671647,
            -0.8402044496882857,
            0.753538077973676,
            0.896575658060027,
            -0.27809069759914085,
            1.1999551439848188,
            -0.4802128409912373,
            -0.21463272383803167,
            0.9224559586151113,
            -0.8082472285098459,
            -0.8264942487193417,
            0.9819138411166314,
            0.17605792669716816,
            0.7601790423654883,
            -0.5151170212310445,
            0.9207692957280597,
            -0.9931180944623963,
            1.2701860075269784,
            0.3440843067218051,
            -0.8941313597395026,
            -0.3441434438280286
          ],
          "bias": 0.3110192253527474
        }
      ]
    },
    {
      "nodes": [
        {
          "weights": [
            -0.17687464034667866,
            0.23499633589995617,
            1.0069806906010246,
            -1.151572470729913,
            0.7421219965243586,
            0.10807011575608806,
            -0.9350135662074673,
            0.6635626303711067,
            0.15240489052296366,
            0.33182067174030583,
            0.7626822807288991,
            0.8235011452589417,
            0.8097636159890664,
            0.5986546689466522,
            1.1023671255317344,
            -0.4619716499107107
          ],
          "bias": -0.4085832263845113
        },
        {
          "weights": [
            0.3268651077998489,
            0.06007050580994641,
            -1.3607248268000807,
            -0.7874564292049877,
            -0.10939403487092722,
            -0.6099573117434153,
            -0.045342004203708514,
            -0.24704725100828417,
            0.5581510670931924,
            0.11184779605114813,
            -0.17673982672189284,
            -0.028669594328699727,
            0.768228575601835,
            0.3590849788758851,
            -0.853622768808749,
            -0.8825943792655591
          ],
          "bias": -0.6125889901692663
        },
        {
          "weights": [
            0.2538884676962891,
            0.31981323758934077,
            0.15050077298523848,
            0.22784420973329383,
            -0.7688523453857283,
            -0.1783773859348296,
            0.40354188531852053,
            1.0019665983427095,
            -0.1909491547100896,
            0.9650144028511667,
            1.0725961573328051,
            0.05863244193721423,
            0.2291431247468107,
            0.39522907146603525,
            -0.23339970653369865,
            -0.21368836953452774
          ],
          "bias": -0.07108429851537568
        },
        {
          "weights": [
            0.8603639626748634,
            -1.1234444697516854,
            0.609529044543467,
            -0.6520496809026674,
            0.9737937893175734,
            -0.5464694008716361,
            0.3670410838116694,
            0.9110526657698867,
            -0.5438674972916498,
            0.39575420069740797,
            0.8315732434425165,
            0.28270092567643285,
            -0.7973882448800058,
            0.27260467668087685,
            0.01930636065803759,
            0.36229530745121574
          ],
          "bias": -0.6730570569663845
        },
        {
          "weights": [
            -0.9996333822858529,
            0.37004166218554785,
            0.602834930939134,
            -0.2603685576276427,
            -0.1739678598520096,
            0.006151483804309438,
            -1.6430096508157948,
            0.8858969338088717,
            -1.2448682874556634,
            4.735640216690928e-6,
            -0.5199382483184103,
            -0.1734146322906338,
            -0.7675578183931346,
            -0.01658285331111653,
            -0.1520044503018666,
            -0.2039576759455494
          ],
          "bias": 0.3241813965332684
        },
        {
          "weights": [
            -0.7707359800719973,
            0.16005154269915634,
            0.6004831098899872,
            0.7544108692733168,
            0.01849722279739449,
            0.2597552234149707,
            -0.1242842052619295,
            -1.1522500872319006,
            0.19158767418855888,
            -0.08385376844122616,
            0.580904527775618,
            0.7427034763904206,
            0.246356106791135,
            -1.1457983731633967,
            0.28592902950293553,
            0.44767330920275883
          ],
          "bias": 0.7071423247506964
        },
        {
          "weights": [
            0.07913533783928249,
            -1.3014447575911232,
            0.34696359524222803,
            0.028800229712029474,
            -0.7187328051174152,
            0.08401945239882287,
            -0.8347623020431896,
            0.04133805333941637,
            0.3086464136140263,
            -0.12940091421861488,
            1.1837629424751688,
            -0.003999109365286198,
            0.55808203887368,
            1.2242917002015794,
            -0.6524796757539431,
            -1.0467224332375293
          ],
          "bias": 0.6846924899701254
        },
        {
          "weights": [
            0.4965459347706248,
            -0.387918554131343,
            -0.3380181321128922,
            -0.9184084677912956,
            -0.011814146114460314,
            0.769705608343287,
            -0.3965112510738788,
            1.7630912821883675,
            1.2006455372463762,
            -0.17984079960271157,
            -0.46453279912322437,
            -1.3695184094592001,
            -0.3588210101687812,
            0.9425158233516471,
            1.4522296074172611,
            -0.2790499491531162
          ],
          "bias": -0.8897169719148599
        }
      ]
    },
    {
      "nodes": [
        {
          "weights": [
            -0.258566735694157,
            -0.7814731697437258,
            0.2261684745166406,
            0.9698340018835472,
            -0.2374105102053163,
            0.39329030886989397,
            -1.1072197903190004,
            0.2999155776665855
          ],
          "bias": 0.46352768686518425
        },
        {
          "weights": [
            0.9658701134844344,
            -0.4372022913755238,
            -0.14216098626543613,
            -0.2992487556631129,
            -0.48659125698688516,
            0.16472637781230537,
            -0.2147677196927636,
            0.4762409786624488
          ],
          "bias": -0.21768268709088964
        },
        {
          "weights": [
            -0.832829698367092,
            0.47063384256901625,
            -0.2658196981320937,
            0.906957525666158,
            0.39646965369242415,
            -0.7912859861944945,
            -0.43984516775969973,
            1.8146183006867727
          ],
          "bias": -0.3645147396583529
        },
        {
          "weights": [
            0.18704185193842876,
            -0.4957277650457662,
            0.16006827607763643,
            -1.1792738760438677,
            0.2664202663342392,
            0.6358348825967908,
            -0.4978327456238598,
            -0.08473941062472079
          ],
          "bias": 1.1441754107756776
        }
      ]
    }
  ]
}