{"n_inputs":24,"layers":[{"nodes":[{"weights":[-0.8440805691383888,0.9733932722767872,0.5465273622073188,0.6480833042448602,0.5903834271334764,0.45100243015371316,-0.9901411562364787,-0.8784576732511743,-1.0039235814716303,0.6756323325534703,0.9452552730127004,-0.16909420341964462,-1.170976243209047,-0.6806854232591719,0.5152123157942197,-1.1115022923678073,0.8993320311790595,-0.12051367573409658,0.19462748997956592,-0.5998565968211698,-0.3035916897535411,-0.15538826893923052,-0.6525764316920917,0.13165941677189863],"bias":0.33638237032492674},{"weights":[1.5982324984745382,0.5009072911444664,0.3113315589229758,-0.1396542274216625,-0.30196356923229234,-0.41355379080141913,-0.0026808767624317553,0.9986624395733786,0.1983278309176929,0.2863972524637,-0.8059917169920194,-1.0430647871861032,0.7289631001296631,0.3059507938802889,-0.5146125426247571,-0.3961347509782177,1.025751876384788,-0.7096706091243561,-0.8877651954337819,0.9218456246041976,0.27178201358667464,-0.4121466086389274,-0.757142145480175,0.2804262148583012],"bias":-0.9490551873629124},{"weights":[-0.5574128697710556,0.20858781261271336,-0.30745699023580564,-0.36285904441430206,0.48784112126810786,-0.4011005481632805,1.2976519304044307,-0.9868003078091354,0.8060196076233354,-0.3397265569226266,0.33492465500627916,0.7535619417870829,0.2639323630716091,-0.7257093566201819,0.6233176728034759,0.2886087175142148,0.18804374817885822,-0.34033699715682186,0.2875477595303521,0.3394961217733903,0.5991634024918739,-0.3475541687354514,-1.0274563301906043,-0.8891200413528237],"bias":0.05224016153048289},{"weights":[0.6845149271265086,0.15260571777610588,-0.27951265441352935,0.1357267779500247,0.842569068466411,-0.410773788691601,-1.0828061118419081,1.1244592327861824,-1.0661568164204742,-0.28944707242517886,0.030754637263611138,1.1531356420508383,-0.06721321139721446,-0.2974466101106238,0.7470890464571217,-0.4937026738358597,-0.436943563592791,0.8732976499464307,-0.7817350716728153,0.2773860850986437,0.19475056242279104,-0.3312591165846248,-0.5294418784199055,-0.2547968510662152],"bias":0.3600217419244808},{"weights":[-0.3255203442672762,-0.5245369859630202,1.010835337111623,0.832739810770991,0.5608581400459984,0.36984996227023115,0.7130168737532527,0.26789527771714317,-1.3297700292938437,-0.04120381281169297,-0.8680099347276976,1.0100882266728397,-0.9020903608707088,-0.8287689811089917,-0.2978366016168228,0.17787213788817652,0.2988212215504549,0.27634803073431424,-0.6201066598535843,0.08921220780455287,0.6457114637554956,-0.5843511998659713,0.13492994833267707,-0.7725494567352316],"bias":0.4777168862555714},{"weights":[0.88547845458995,0.4514765660868547,-1.457426337566624,-0.8392859866731521,-0.019683936716027094,-0.8224807507759371,-1.0842753564691798,-0.47518230697944863,0.2670605368023213,0.1558853275964298,0.04173121259490038,0.32918668463694867,0.6860635914961213,-0.445000702140852,-0.08423615588774719,0.5957180877469124,-0.1137964437952991,-0.4035518406482256,0.0677409385165102,-0.10818580558143456,0.9099348821972896,1.0382284630692717,0.6656243338790762,0.31769563129505],"bias":-0.6434116906434124},{"weights":[-0.7386500004688328,0.16947096805505438,-0.06957467708948349,-0.4140011281475638,-0.5504236322464171,0.46629658675394864,1.056159471621078,-0.06000295910366614,-0.8902786960185386,-0.0806897711003729,-0.7779568066204424,-0.0036361758598364977,0.10795351414534753,-0.5999620850908683,-0.7299442810507469,0.14491989675509423,0.3397520100219561,-0.08909481197092045,-0.680615235571,0.30060566968941044,0.23496402061285684,0.16420516574389543,-0.7695956454261503,1.0061602205441251],"bias":-0.5465794778014623},{"weights":[0.04820213133288753,-0.631751096318806,0.9366269451016096,0.13775945624447833,-1.1181767408130878,-0.8921617832266886,-0.05151964893697218,-0.3346645171645597,-0.9335591223078874,-0.6313562318635437,-0.4869652744654947,-0.2016161012430774,-0.7919140234837533,0.054310814264675905,0.582555557717825,0.04598854049814555,-0.24429203399883595,0.6175954298192105,0.8768931278135975,-0.10967004886581624,-1.1345412464662077,1.10382435519775,-0.09799589971943543,0.06776212553688207],"bias":0.22126235377063136},{"weights":[-0.864341469207644,-0.7574074381217332,-0.29473688389343855,0.49857476730122113,-0.308098417951085,0.7533676582318645,0.11590976432479108,1.1079897750775234,0.04794691185743567,0.7988029309724134,-0.5637714793729607,0.4719612875271477,-0.7905978824353971,0.3925176154912067,-0.20865556858341916,0.335444314707622,-0.2653654730946246,-0.20167341388389295,-0.9562091447364516,0.6614826581692818,-0.3821634787679425,0.6321828806268848,1.0762008897370867,-0.6467212700804145],"bias":-1.2101732373676204},{"weights":[-1.7780589835973901,0.392442126104123,-0.4696754992428661,-0.2482532829795808,-0.5981078496654433,-0.29745079098231725,-0.6105332990000583,-0.31040523826065414,1.0701346904369318,0.02351116504740343,0.06750165002075223,-1.150739428431855,-1.017309861850438,0.7694262184777438,0.47512835001999526,0.18881939865346328,-0.5730177811765813,-0.7856289504188032,0.41853491724206576,-0.07451889387308779,-0.6287182604932161,-0.14652373728283616,0.03941657302200413,0.5894239842047831],"bias":1.5075925159605286},{"weights":[0.33083815451535914,0.4568339103947499,-0.8755299567481825,-0.4755480678857154,0.1786545839317417,0.3282950453056138,-0.5076173505689983,-0.8703820548330712,-0.04430817883990691,0.583195558983017,-0.06134671710393585,-0.007976654189372538,-0.1889219390922651,-0.04155093522957243,-0.4717154594368085,0.697802134622152,-0.8380146377357403,0.6223940755703349,0.5872904714354119,0.09200471153641006,-0.4658329587766638,0.6245483304468772,0.12201343282640421,-0.746818317460177],"bias":-0.5254749273978747},{"weights":[1.1477039799603357,-1.0332751867663197,-1.1740932254728655,0.5508227998613712,1.0318923329089835,-0.0983656577552198,0.35872491895071323,0.07556839131523659,1.844092375387472,-0.21415032311794147,-0.3866143348930138,0.06231431980382186,0.08747302719447508,-0.9204374291060764,0.3246936083223725,-0.8687312731742334,-0.2525424700717742,0.08006512042624549,0.8656294347435143,1.2187491662026908,0.1122250776766419,-0.8544050239844444,0.22093454130434692,0.006757107845179591],"bias":0.4485351055525141},{"weights":[-0.4698331308063232,0.38417719078958534,0.7579544912273877,-0.7915205074385109,0.010927189260792794,-1.0237253024145845,-0.0873488900502845,1.0184149891029723,-0.8491850209986838,-1.017952025211595,0.5054588717132561,-0.4013348946204259,-0.3264910230998337,0.6145361026843665,-0.33874529374587536,0.3879000845574862,-0.5162257654713236,0.27260726230160753,0.6693614442379483,0.2393195517690905,-0.6552389601094393,-1.1043443271858606,-0.5078279384100275,0.04671243659110933],"bias":0.5140419234949692},{"weights":[1.0595932113558841,-0.6935438195272947,0.26210243931417865,-0.5921465892588268,-0.8555565519846913,-0.10898496521143078,0.879204357237593,-0.511737465576494,0.6712916323059926,0.48849713099554987,1.6229731016060998,-0.867233495878823,-0.12427462378009271,0.3185005168362907,-0.2720178492429811,1.8808460717367996,-0.5890576996803922,0.483922170632394,0.4534716166397041,0.3246522718704048,0.8047839018273744,-0.3789747512774789,0.2828664212920481,0.4062810842383246],"bias":-0.8465607932019552},{"weights":[0.2801536897424452,0.547110797029225,-1.0248388061342553,-0.5405023764707787,-0.23695956255278847,-0.7483325580913609,-0.6401039912729113,0.13836110151058442,0.002404229903099707,-0.5427882153873704,1.453707313097867,0.5444777181328337,-0.05974774487221454,0.5651948389648551,0.08010454343584678,0.10661730913131191,0.1719348066778573,-1.1542804733291063,0.1481548039839788,0.5893169568726098,0.09490196944185578,-0.6366493865001909,-0.6902952255998065,-0.9059263811685414],"bias":-0.8289195735660785},{"weights":[-0.47041469256777413,0.8195956409853833,0.8104548567460337,-0.7752151031519184,0.0013449727144232426,-0.7161842232035044,-0.6851317569578621,-0.04761954795751791,-0.17034742567188832,1.048224565025824,0.698862839648384,-0.313226194901024,1.9561664391840872,-0.4620919302113865,-0.23817274530151863,0.4415443845439547,-0.08166827786097164,0.3325116600640321,0.6879306889992962,-0.0643062169679976,-0.4768311968142403,0.4525122017015818,0.6189951123516331,0.5912285850766265],"bias":-0.26867817444958925}]},{"nodes":[{"weights":[-0.6162774976910177,-0.07718225252764388,-0.6316533760978039,0.9364948906999288,0.05119286744849149,-0.34190366599580213,-0.445731068004041,-1.2272201752593734,-0.23576147370264025,-0.19145094661793807,0.30233976278064056,0.08534397329689393,0.5817123312335233,-0.22540800745048956,-0.5051107574151334,0.011491851634995887],"bias":0.3821692683237304},{"weights":[-0.8874376494798609,1.3638777961512345,-0.564005158748328,-0.8614041699435734,-0.7930226818427636,0.0010165586502214607,0.1844371079302791,-0.05233702963347925,-0.2099292900452681,-0.9481468828321192,-0.08045870841242514,0.25309784080188125,0.8912797662871029,-0.8893517779377327,-0.5946827733661962,-1.1768921199045552],"bias":1.7614148936655742},{"weights":[0.6238578170048482,0.1903461811427953,-0.2234143975952013,-0.8372466855382162,0.43573319858197257,0.8511133013903258,-1.075078534324616,0.021725366261977217,-0.3046174315588672,0.31015032244374724,0.1027543796991816,-0.29379015641938655,1.0612186472435332,0.9627778284933316,0.5803060218045871,-0.7575344355684647],"bias":-0.23285755686695292},{"weights":[-0.1407269441407488,-1.0486129328501224,0.9193659184810596,-0.5963654498085657,0.920906360405582,0.1354019859529243,-1.104955080356654,-1.176319262817754,0.5398804450465995,0.6233540376664443,0.20593551786577435,-0.85214024315425,0.10203508830497296,-0.5641414806022165,-0.8055963453204052,1.3302900137577456],"bias":-0.3171601774642121},{"weights":[-0.8978783308592492,-0.8267675693334186,-0.2653670401476751,-0.7650688031359052,-0.4720234358090411,0.8587232983121602,0.9365317585925342,0.023814103406050863,-0.3543460780981419,-0.1651493127526443,-0.727429022851731,-0.7778710979808859,-0.13744910309398536,1.095175880731751,-0.5646134780466556,0.10606920738327635],"bias":0.9821376240435992},{"weights":[-1.0007439076412146,-0.2900672746330017,0.007002720637927076,0.3026912078538341,0.7765588365832845,-0.09276560417034609,-0.6128190761718743,-0.1306499543496858,-1.4302195025214912,-0.9951454870402622,0.7394512516868292,-0.5620538486767349,-0.17835987636872738,0.16154758179062534,-0.43801041220250375,-0.6217417953195231],"bias":-0.9025050190970296},{"weights":[0.898978908688609,0.6785497628595136,0.3460095769928633,-0.37130293332893505,-0.8724342715964065,0.6265525302807917,-0.03513423096705162,0.8988786829203547,-0.960246353828908,0.4650756074478518,-0.8047014466956007,-1.504559017014235,-0.9119241637702948,0.11867437257448804,-0.33539011978611316,-0.9579067742461898],"bias":-0.47881633041399285},{"weights":[0.5705554613831121,0.5000760177699495,-0.238836639023664,-0.6136580496415251,-0.27717105316132007,-0.4770089044766639,-0.1386517053851865,0.02831044135914315,0.4369253330536601,0.9128781634781666,-0.2156929319526146,0.5922103498054976,0.5010737404570142,-0.7770231631208837,0.09760558295014428,0.3388879835968681],"bias":-0.37113830379970975}]},{"nodes":[{"weights":[0.09615207593343945,0.11232862046935078,-1.4863923565738266,1.3549050275299563,0.24441397890311653,0.14483210703448474,0.1917307720057025,-0.19395929478205665],"bias":0.19367704368932123},{"weights":[-1.237426562353465,-0.6258414582815923,0.7419900154471182,-0.11430508942962896,-0.284898068876752,-0.9336198718778336,0.3779127484604611,0.07696115907708252],"bias":1.4842287213975285},{"weights":[0.2780055227338527,0.6464360049094223,0.6407143464974392,0.6080837661349082,1.5235916310624198,-0.061995842129342144,-0.35556527309913105,-1.1265067246857738],"bias":0.490221522052156},{"weights":[1.2167572044083352,0.6216161822263708,0.05749118432160409,-0.30440183980054153,-0.1448452543679818,0.3892374896283132,-0.11513465853869968,-0.1892645211484273],"bias":0.932445273922744}]}]}