{
  "input_count": 24,
  "layers": [
    {
      "nodes": [
        {
          "weights": [
            -1.0750361375518351,
            0.25208639376808506,
            1.075511062312503,
            0.19246434224796694,
            1.9042902265348076,
            -1.2386278897085874,
            0.19408347986201147,
            -0.7344000910771072,
            -0.27627416452629466,
            0.426139818600415,
            -1.4576665690928987,
            -0.2525447863384047,
            0.05895117040957436,
            -0.11897804073583429,
            0.6085149448487581,
            -0.5342930777222461,
            -1.0935759288218294,
            -0.14734137977933137,
            -0.22291508769487106,
            -0.7103516068218603,
            0.44033463199448514,
            -0.39034824630033893,
            -0.7092551873872626,
            1.0004954608293481
          ],
          "bias": 0.18407296922566962
        },
        {
          "weights": [
            0.5345430681647158,
            -0.4453415538913549,
            0.3768243742345411,
            -0.4234981683429659,
            0.7589150690791492,
            0.29373815594182257,
            0.09706327537111979,
            0.3779366401350394,
            0.26043394006832943,
            -0.5478701439871007,
            -0.07434506179881362,
            -0.6524960423104704,
            -0.1793463497455054,
            -0.6803058646673568,
            -1.659803213598383,
            -0.8511893018749663,
            0.35237195896715645,
            -0.48473947114435406,
            0.34698047194615006,
            0.17192717102489458,
            0.10152910945469631,
            0.5864935994352002,
            -0.03129803934906561,
            0.12319684425448443
          ],
          "bias": -0.9077573801528738
        },
        {
          "weights": [
            0.2592347894096456,
            1.113296573884971,
            0.9369455484434501,
            -1.9493741773123385,
            0.9740345982428544,
            0.33465704509259336,
            1.0907992728505278,
            -0.07433490895250533,
            -0.7616461444234517,
            -0.005842122466990646,
            0.025429851046703048,
            -0.5478971038381633,
            -1.6531667243482324,
            0.39695808517203324,
            0.16805084885214516,
            -0.7224232169785754,
            -0.8160337365347892,
            0.1279976852740523,
            0.3291122363587398,
            0.16696513915597505,
            0.9412878290673856,
            -0.1806398329380144,
            0.7039606847854962,
            -0.564049164730346
          ],
          "bias": -1.5762470784947082
        },
        {
          "weights": [
            -0.4082575760363454,
            0.5665216841194859,
            -0.4879982611383825,
            0.9078859429778309,
            1.634129531563761,
            1.1150880791666091,
            0.42038187283288037,
            -0.3310543809487117,
            0.7832294993655566,
            -0.43858032802733293,
            0.2784049016359281,
            0.035363636989690944,
            1.211136742686389,
            -0.8288126057360096,
            0.39549907472838125,
            -0.653236859570765,
            -0.4950619166651248,
            -0.29151241058695143,
            0.6099896451278741,
            -0.5830511383150432,
            0.6891315218750005,
            -0.5325470522553037,
            0.0054185687125161,
            -0.009885680711593126
          ],
          "bias": 0.3531454538156938
        },
        {
          "weights": [
            -1.0846068120815708,
            -0.09314246361763205,
            1.2077280265156818,
            -0.799311627555271,
            -0.9515892491272534,
            0.4362831943105037,
            0.5005699840951123,
            -0.2332833234532509,
            0.011542893054231201,
            -1.1736446089452073,
            -1.0805538624322977,
            0.3413256685437344,
            0.332491018882459,
            -0.389779242504622,
            0.627802796844789,
            -0.00023859654434173205,
            -0.37819593300363097,
            -0.32813987816012957,
            1.1159921943258557,
            0.6932693040365628,
            -1.3423728655253881,
            0.2797629753258603,
            0.400931458981747,
            0.6609777410712484
          ],
          "bias": 1.2185440886241705
        },
        {
          "weights": [
            -0.10348011278919945,
            -0.04104468335539789,
            -1.235326653903359,
            -0.6486608119701333,
            0.9151755873145436,
            -1.6256511992920084,
            2.4316997317251867,
            -0.7647634528721984,
            0.7107702113339204,
            1.0152508023751956,
            0.29120521285588097,
            0.6677415682384481,
            0.3820233047230714,
            0.5891856831022447,
            1.0636573057658816,
            -0.12493256321622226,
            0.2264238584920222,
            0.4514906764307013,
            -0.4534756336944775,
            -0.7840732108782389,
            -0.4147928715654501,
            -0.3145389205928048,
            -0.2261836455340589,
            0.286756784437457
          ],
          "bias": -0.5199015126087623
        },
        {
          "weights": [
            0.08999860194430673,
            0.3286023267481627,
            0.9166392752169499,
            -0.6832201633121797,
            -0.16771157778278928,
            0.7827767431854344,
            -1.586763742929863,
            -0.33680110083069975,
            0.21668649405057572,
            -0.09624508026543144,
            -0.20746634795269137,
            -0.42557355307337696,
            1.1548782022565751,
            0.6534217733153825,
            -0.766437556054492,
            -0.6761887292173596,
            0.19719507675354006,
            1.1113022236379428,
            1.645329749209641,
            -0.9770273489197214,
            1.042234177967459,
            -0.5429385209964857,
            0.20873571345817793,
            -0.2554757048529791
          ],
          "bias": 1.150386713339422
        },
        {
          "weights": [
            0.4670537011779407,
            -1.2072346795653475,
            1.0086701499300974,
            -0.11966191156114273,
            -0.9712423760044814,
            -0.7105138668142993,
            0.047990261575420086,
            -1.3972018536201052,
            -0.8592490403632822,
            0.037319332411611186,
            1.8878905358148543,
            -0.477898147366096,
            0.9245696053534073,
            0.7898083086347321,
            -1.0214364717172828,
            0.4181327480908482,
            0.8647878052948741,
            -0.443260568360898,
            1.4800446306702069,
            0.8414775565495358,
            0.15867625077130237,
            -0.10002652853985505,
            -0.12200239684477547,
            -0.18621655767732845
          ],
          "bias": -1.656371009318631
        },
        {
          "weights": [
            0.4757407378389319,
            -0.21407586673806273,
            -0.3555243876539056,
            -0.29672957643484543,
            0.19174910155822011,
            -0.785023227677633,
            0.7485447482638181,
            0.2897668490266418,
            -0.3470094649468401,
            0.6444136924671402,
            -0.12295826340674168,
            0.6374194335086719,
            -0.48577970296465833,
            -0.743994176953676,
            0.6625429015370676,
            -0.5721143435996846,
            0.5455477375261403,
            0.2620193565936508,
            0.9196877981395578,
            -0.02921798378835793,
            -0.11771256816460807,
            -1.1342377022362296,
            1.3784129656740647,
            -0.16384190268198723
          ],
          "bias": -1.297128048797998
        },
        {
          "weights": [
            0.4645345258590565,
            -0.13906510203145542,
            0.3860830833798714,
            1.2803267140504,
            -0.2321029269852643,
            -0.7180977770114467,
            -0.6177175511580206,
            0.4102343475984375,
            0.3764139803901031,
            0.986153662116728,
            0.1519587246864555,
            0.427712124393662,
            -0.8135219703353775,
            -0.6270248149336856,
            0.3962786836356701,
            -0.011095038926203317,
            1.5163313920853896,
            -0.418923457095494,
            -0.517757685976509,
            -0.34963736519968347,
            0.41301544682010016,
            0.6200710410043166,
            -0.9542944429731022,
            2.570816153406049
          ],
          "bias": 0.4765783332283945
        },
        {
          "weights": [
            -1.0072475671272565,
            0.8774727213201112,
            -0.8502490931586176,
            -0.5156716708486271,
            0.03751704250328527,
            0.9576327622341554,
            -1.6074032253510753,
            -0.940181319972538,
            0.1279436061377785,
            0.9934746432532278,
            -0.7437564366156904,
            0.34511191297962973,
            0.20859995803311732,
            1.233191247233398,
            -0.547795557688145,
            1.7621666056339769,
            -0.22676123772209503,
            -0.3474846371911736,
            0.023269698508187386,
            -0.8129556041210926,
            -0.001339623235274326,
            -0.870142451244258,
            1.284540392030306,
            0.777220469902465
          ],
          "bias": 0.2220659758794118
        },
        {
          "weights": [
            -1.6425298474226793,
            1.0871807559162188,
            0.8630393467393841,
            -1.779093363374181,
            1.0557965746406817,
            0.6006361294677409,
            -1.3105355918467703,
            -0.07152669267467178,
            -1.3372113439785116,
            0.5463123433710335,
            0.6853432804758384,
            -0.19843788821247577,
            0.9356883520987825,
            -0.0049971934388525485,
            -0.48745733679263814,
            0.27616109101167907,
            0.937417866554658,
            1.2998664536771571,
            0.08078345732098949,
            -0.4267367734192744,
            0.13034466916652585,
            -0.19119673831676862,
            -0.3615224935993871,
            0.2520097755386215
          ],
          "bias": 1.0494019240216885
        },
        {
          "weights": [
            0.7296187420670165,
            0.4188125652373812,
            0.7856704740201009,
            -0.7232590750035373,
            1.3279213081778913,
            0.8021651375901836,
            -1.4493316078796763,
            -0.506550142863845,
            -2.1194463704948316,
            -0.12320862757089722,
            -1.2062984240360461,
            -0.07943615033087502,
            0.3716497943428969,
            0.06844154727332943,
            1.5495786343127411,
            0.29316051880973726,
            0.5612434445109327,
            -0.7890237616273795,
            -0.5438953246874775,
            0.17123964734950917,
            -0.7659677732468374,
            -0.6958458439366583,
            -0.09125362913588418,
            1.6120199691407484
          ],
          "bias": -0.028307133430859527
        },
        {
          "weights": [
            1.4969289246954376,
            -0.3654650049029544,
            1.2346877034593613,
            -0.750538946001873,
            -1.2399243417912282,
            -0.41105692202045313,
            0.743488706416793,
            -0.38644127048497684,
            0.29552655160177,
            -0.05340130931405712,
            1.2327911247834287,
            0.5136042854773815,
            1.1537445125210555,
            -0.7783555065246277,
            -0.6899930642158449,
            -0.5659804349087146,
            -1.4411747076541623,
            -1.0100383205129007,
            -1.1234368708465794,
            -1.1955376716187305,
            0.1338123915424625,
            0.11818367135617766,
            0.047175914762028856,
            -0.6376879763392053
          ],
          "bias": -1.149548484312186
        },
        {
          "weights": [
            -1.055038085816133,
            1.3845169153241557,
            -0.2522624019806613,
            0.06369951224727712,
            0.210158869068368,
            -0.1281809025714964,
            -0.3822571652335695,
            0.5986000651503838,
            0.990102672351785,
            0.3000571056556458,
            1.135615495700089,
            -0.05222979608678904,
            -1.2322170387892177,
            -0.3400685843492177,
            -0.7009713752951071,
            0.5367553757239465,
            1.921561372683785,
            -0.5519849542784534,
            -0.6709245910264565,
            1.2045229546867506,
            -1.0465192934879504,
            -1.1245648783529874,
            -1.2100698749265224,
            0.864108535832575
          ],
          "bias": 0.6788858063144594
        },
        {
          "weights": [
            -1.4180746536891284,
            0.3614072596165783,
            1.689134859379207,
            0.08247248888589377,
            -0.8225778829515542,
            0.47493808801461684,
            0.03896070805490148,
            0.5070812823701105,
            0.8255242504233491,
            0.9219670559397464,
            1.097042613246701,
            0.26184853655712315,
            0.5406153471812143,
            0.0807488111717245,
            0.33562430864427795,
            -0.30204224987626827,
            -1.141963899098975,
            -0.13848957064715567,
            -0.2685267375908479,
            -0.7669547909139554,
            -0.048765348744175666,
            -0.9375146286404696,
            -0.030441483271167455,
            0.4090786906550151
          ],
          "bias": -0.5296129338311727
        }
      ]
    },
    {
      "nodes": [
        {
          "weights": [
            -0.6231342825921429,
            0.4530719545182702,
            0.6937586983480506,
            -0.8021870724505819,
            -0.8433045855605683,
            -0.3270365910324746,
            0.8144542189574013,
            -0.796826093781693,
            -0.34529439938957485,
            -0.5527119310986741,
            0.2001591385024853,
            0.6569946286314583,
            -0.6157035029593276,
            -0.8943484028247642,
            -1.1741361544720341,
            0.32450960610378576
          ],
          "bias": -0.43483320877444787
        },
        {
          "weights": [
            0.6169565382702706,
            -0.8113608208596536,
            -1.432655677880826,
            0.01728562769447406,
            1.036811428299225,
            0.2533047857726304,
            0.07994967906536488,
            -1.0398005403836825,
            -0.2400565853232119,
            -0.8697176639875973,
            0.012337303392612603,
            1.2515885174570103,
            -0.08210086949741359,
            0.585511165913198,
            1.3793738160492572,
            0.7462491734245766
          ],
          "bias": -0.36164426044426323
        },
        {
          "weights": [
            -0.27575996693964056,
            0.5246263675774874,
            -1.928025963683554,
            0.7657036445051502,
            0.07162538448484901,
            1.0354402864054575,
            0.8094230226328717,
            -1.0181825912262987,
            0.3343978238427784,
            1.138577779920818,
            0.582916598631754,
            -1.6042601819795694,
            -0.5857951614239402,
            -1.48862823368207,
            0.9864569382523021,
            -1.46285038790278
          ],
          "bias": 0.2016605832366395
        },
        {
          "weights": [
            -0.34886700047699104,
            -1.7723284435663473,
            -1.368032231730282,
            -0.8752692063174332,
            1.096885075061327,
            -0.3767034121055416,
            1.3281018176126036,
            -0.6080512867918291,
            -0.24855741367002562,
            0.42463201052417804,
            0.2472508934084135,
            0.41372179827765493,
            1.0123495846164388,
            0.08933450119195845,
            -0.7241738097368791,
            0.3303128891213046
          ],
          "bias": -0.6986408067949248
        },
        {
          "weights": [
            1.3042195732724213,
            -0.38191641015229616,
            0.42642995615019635,
            -1.0359547997012104,
            0.6499261454490457,
            -0.7290467156222082,
            0.6248906065028684,
            0.8015604158994432,
            0.5455867084560837,
            -1.7184088579853858,
            -1.2932781763708217,
            0.9616420502396179,
            -0.12037282033560492,
            -0.43638988798068346,
            -0.2357060415728935,
            1.1501944189995936
          ],
          "bias": 0.8163458512626705
        },
        {
          "weights": [
            0.49288473006844485,
            0.1521702552771181,
            -0.969765888726505,
            -0.7625925752955481,
            0.018128036221530724,
            0.09130839325666473,
            1.0777094875000057,
            -1.611043470748778,
            0.7352691163622261,
            0.8270079100709311,
            -0.8204245685263879,
            1.2808605195633682,
            0.313719655801855,
            -0.7146744221281212,
            1.1243012822206002,
            -1.3707928514466456
          ],
          "bias": 1.4534031224601653
        },
        {
          "weights": [
            1.2304085882327984,
            0.76980097494703,
            1.466694315078123,
            -0.7483647536550545,
            -2.1137858128901876,
            -0.12849003882318266,
            0.2677290734978797,
            -0.22907536450090288,
            -0.24899680630178453,
            -0.01194051035382971,
            0.834797934277511,
            -1.4738175363311075,
            0.8065566496715241,
            -0.8623213447528147,
            0.2415550857771742,
            -0.4000914803899404
          ],
          "bias": 0.8775194316888842
        },
        {
          "weights": [
            -0.08185160005861514,
            -1.2671594486746098,
            -0.6900692082266412,
            -1.048832843002412,
            0.674426388417388,
            -0.7207161655804368,
            0.8858170963602782,
            1.9362008533228345,
            -0.91629174441611,
            -0.04781641444286633,
            -1.0482753661706539,
            -0.06066742119172161,
            0.22910418181409364,
            2.3820234856631264,
            -1.1305209342525713,
            1.0306036278483528
          ],
          "bias": -0.24233117312363087
        }
      ]
    },
    {
      "nodes": [
        {
          "weights": [
            -0.7605541570363511,
            -1.5392835634909445,
            1.3998353865041897,
            0.4211488695185116,
            -0.0736483856383145,
            -0.6531599743037825,
            -0.21239751692681613,
            2.328412999266588
          ],
          "bias": 1.0492517734801758
        },
        {
          "weights": [
            0.16826457810347503,
            0.2613340041032019,
            -1.2364167473925283,
            0.6886114839000889,
            0.5991734055131663,
            0.6892239736459075,
            -0.4645136823969054,
            0.4455985821356163
          ],
          "bias": -0.600628945422199
        },
        {
          "weights": [
            0.2745669855991923,
            -0.1721553214887469,
            1.4670337540775806,
            0.2526437855719145,
            0.6989394400415029,
            1.555779537715361,
            -0.7276397677813651,
            -0.5873288930526936
          ],
          "bias": 0.47763139133808036
        },
        {
          "weights": [
            -0.28522642861317105,
            0.6704857056642021,
            0.4391098050811655,
            -1.1138476905710395,
            -0.5355610779444748,
            -0.01694341282736514,
            -0.7398543480826092,
            0.15067534050832693
          ],
          "bias": -0.19181821904401072
        }
      ]
    }
  ]
}