{
  "input_count": 24,
  "layers": [
    {
      "nodes": [
        {
          "weights": [
            -1.012146665947367,
            -0.2939819594680503,
            -0.055009241054589625,
            0.8625370399892244,
            0.7427591564044572,
            -0.6342068174588722,
            0.049312993865908164,
            -0.2980250355896127,
            0.039790651001808564,
            0.5038841642514901,
            -0.5735585889678487,
            0.2592456875688735,
            -0.14862189242275542,
            0.27665994253398635,
            0.45738011526339506,
            -0.45961601345993874,
            -1.1634889161623407,
            -0.021837960548302005,
            -0.24873356054885862,
            -0.0964654783749323,
            0.09612285538097032,
            0.08615369047533993,
            -1.2995546093602384,
            0.3592684120793603
          ],
          "bias": 0.596710476215858
        },
        {
          "weights": [
            0.35786634026139547,
            -0.7284736362476977,
            0.3360308625397983,
            -0.511680265898794,
            1.0288759220125832,
            -0.4447345000046144,
            0.4091895454775143,
            0.5237929375983426,
            0.4056951039195379,
            -0.09906130810720393,
            0.09563430036196952,
            -0.7341995513995025,
            -0.6092608695987838,
            -0.20306910027123928,
            -1.707728361125865,
            -0.2702865768158991,
            -0.4739462180465542,
            0.0073161287362213945,
            0.1671496315493003,
            0.17503224536201786,
            1.0799698187784257,
            0.5584221684963153,
            -0.19345494591345003,
            0.4231157587537546
          ],
          "bias": -0.18552614761902328
        },
        {
          "weights": [
            -0.13715609221406797,
            1.0832876783801277,
            1.0233697150738483,
            -1.7918261097951538,
            0.7571833396552489,
            0.16290564303211733,
            0.6968763124511543,
            -0.01256616894013407,
            -0.6848921893100443,
            0.4477518042693014,
            0.3211873143830454,
            -0.3771180792220883,
            -1.2483735027684617,
            0.3935154547339763,
            0.024072672217057244,
            -0.35478739492279293,
            -0.6768030013767168,
            -0.9631399941589794,
            -0.6018712149361177,
            0.751065130447055,
            0.7910007508964925,
            -0.17805464308383964,
            0.8549676915939229,
            -0.6213248539413164
          ],
          "bias": -1.1220544506350485
        },
        {
          "weights": [
            -0.3403967650057201,
            0.03459382986930687,
            -0.15579548445835117,
            0.0975293346003398,
            1.6372922430657268,
            0.6147483420827953,
            -0.2521206236111723,
            -0.48829841572305066,
            1.2073419553024956,
            -0.5342597788622692,
            0.15218020550671724,
            0.3416610625213071,
            0.8685543731972598,
            -0.21552851483445679,
            0.8665637656255186,
            0.13968150987148414,
            -0.5303879548521682,
            -0.12583995548969423,
            -0.004375810951838456,
            -0.7430199477664159,
            0.45788161056050575,
            -0.7171176308869608,
            0.3713156931819076,
            -0.035124747559314246
          ],
          "bias": 0.19014562791353684
        },
        {
          "weights": [
            -0.21213820291149377,
            -0.5741152038028081,
            0.688838682188707,
            -1.171911361519917,
            -0.633706506889656,
            0.18181850814224787,
            0.15293670656190794,
            -0.28526303847752693,
            0.38617203193498906,
            -0.7727422973747937,
            -1.1261837802441776,
            0.24147861267067403,
            0.27627551168506015,
            -0.4124330944750836,
            0.27749457564374713,
            -0.4993853077443081,
            -0.29009990295322446,
            -0.41426872494760436,
            0.21129433149799293,
            -0.24211538027238655,
            -0.7682763556767165,
            0.46937829675249954,
            -0.18418817564243714,
            0.3103651488367245
          ],
          "bias": 1.3455214955814885
        },
        {
          "weights": [
            0.2193667027717071,
            -0.4510315482631094,
            -1.2429552000716368,
            -0.9044328413566518,
            0.4838978123440211,
            -1.1838782007075201,
            2.0738060886237175,
            -1.1256627202862213,
            -0.29881272137073156,
            0.4796567444378012,
            0.2532903310960394,
            -0.2764493852067016,
            0.34840945431325077,
            0.7548523493501478,
            1.0010850383858292,
            0.2482584436530139,
            -0.39433710704877273,
            0.3974819266499405,
            -0.1434446403884468,
            -0.7645408405413155,
            0.14790294254306455,
            -0.4264570052250503,
            -0.3847009900577328,
            -0.07434650980780146
          ],
          "bias": -0.23635376388768328
        },
        {
          "weights": [
            -0.6820792807915875,
            0.636637132929732,
            0.5926654305421454,
            -0.3851628520545466,
            -0.26512695968603023,
            0.4560126342633227,
            -1.0494145960522419,
            -0.09105869504034589,
            0.5870751798482403,
            -0.8184578371405842,
            -0.4454454365514627,
            -0.16505182160842255,
            1.0943373787007278,
            1.2551203824621553,
            -0.5626370772587608,
            -0.8348652640722486,
            -0.44580757965136986,
            0.7393149916328858,
            1.3754340429437808,
            -0.748819267508857,
            1.3066291254039195,
            -0.003679955673938723,
            0.14015878629974587,
            -0.7223480459901712
          ],
          "bias": 0.9229590233146543
        },
        {
          "weights": [
            0.15199247273363872,
            -1.7905318774440087,
            0.6192224762521763,
            0.48222834363792855,
            -0.28891014529040937,
            0.2752131984394818,
            0.125410269918715,
            -0.7979597820262185,
            -0.20448368181967122,
            -0.15839033326531232,
            1.50880979744304,
            0.06236687433898777,
            0.8836373213865176,
            0.5849000280200111,
            -0.7936068143579865,
            0.39109280537275504,
            0.3158561362293319,
            0.4933924669038025,
            1.076464517152575,
            0.062234064536273836,
            -0.6569472884083678,
            -0.23291847969749263,
            0.24701491783500035,
            0.246145940750115
          ],
          "bias": -1.2664044382879143
        },
        {
          "weights": [
            0.7201933967943831,
            -0.19122040164404797,
            -0.13103880822578096,
            -0.4040696705201078,
            0.780978913981997,
            -1.116955243135994,
            0.38407427854097576,
            0.32670790364325386,
            -0.2791264898000637,
            0.05750505396789679,
            -0.4496769446629153,
            -0.07309154996205464,
            0.42730855511907695,
            -0.18308659215686776,
            -0.27444170920490474,
            -0.5736189659516635,
            0.3529063534086007,
            0.3813589059226231,
            0.840755906576695,
            -0.22661706879518825,
            0.08606349953004255,
            -1.341693116917346,
            1.5420123253345623,
            -0.24995253793346395
          ],
          "bias": -0.7495341731782171
        },
        {
          "weights": [
            0.8157146760338706,
            -0.7429118334542493,
            -0.014847823981580965,
            0.6083565855303787,
            -0.3016056140008067,
            -0.03250957304090034,
            -0.3985663924646357,
            -0.1501453774692192,
            -0.19886612754716046,
            0.4323563456973864,
            0.09885376870802517,
            0.6140339338757032,
            -1.0549035428596782,
            -0.7840770031882854,
            0.734787290990246,
            0.09420770009175553,
            0.7218524922498469,
            -0.651534942763559,
            -0.08344716135248173,
            0.18663010703497143,
            -0.24615475550491245,
            0.6611841551678269,
            -0.43366863391207655,
            1.6838267806097624
          ],
          "bias": 0.04701880831776862
        },
        {
          "weights": [
            -0.5722547213968631,
            0.014321906105933237,
            -0.7437554159659512,
            -0.9847860782850045,
            -0.3776923842444581,
            0.779481887982603,
            -1.3854078508435888,
            -0.3912273699340675,
            0.23883342017849346,
            1.367993230457469,
            -0.9226049296101672,
            -0.0760155750383657,
            -0.03513316368034108,
            1.0179217783678827,
            -0.8816701484633677,
            1.271542598032023,
            0.4250763966893847,
            -0.3416673329101379,
            -0.2870274009934043,
            0.03099580209470383,
            -0.7814681410571179,
            -0.8153058221371474,
            1.0687145774031666,
            0.19199836593217118
          ],
          "bias": 0.050710203245279334
        },
        {
          "weights": [
            -1.1862100796328843,
            1.1705250898031656,
            0.9043531449419835,
            -0.37571889931013014,
            1.0794923469016122,
            0.5037846541034438,
            -0.412760893502197,
            0.2718966882076149,
            -1.5115858190933171,
            0.4084130203485943,
            1.0769440559866574,
            -0.7817360463294739,
            0.6136762941837566,
            0.3660534947567087,
            -0.5472216636478615,
            -0.5205725523645738,
            1.0621973162710021,
            1.2527995741759097,
            0.36391600144072905,
            -0.6309040596319485,
            -0.16460890718406915,
            -0.20186422824179434,
            -0.38367294993467455,
            -0.17649219420705053
          ],
          "bias": 1.0308621086785954
        },
        {
          "weights": [
            0.01143537798053905,
            0.2777455809863383,
            0.4550443138587839,
            -0.16993953333585485,
            0.39095349019980385,
            0.38518272736586934,
            -1.2184625427321505,
            -0.6181990020605403,
            -1.3631688676012774,
            0.23508420761630597,
            -0.661259798967573,
            -0.08517094845258151,
            0.3429538479741631,
            -0.5501538881752148,
            1.0767066021045193,
            0.1977052941011613,
            0.1319423238106723,
            -1.1487142374929236,
            -1.052512060742726,
            0.9212758411027898,
            -1.1386475449131366,
            -0.9942162860469401,
            0.3057961919142028,
            0.7632991778524721
          ],
          "bias": 0.20346854355120877
        },
        {
          "weights": [
            1.0115172148448262,
            -1.083130598890211,
            1.2683571428054208,
            -0.5203814970220039,
            -1.026602844458853,
            -0.056946293952262694,
            0.7545709028876465,
            0.22180541797259312,
            0.5546325748513301,
            0.1520863779182236,
            0.8522708782108396,
            0.1288747087142059,
            0.9108818601856065,
            -0.5456609855692779,
            -0.8202587937514866,
            -0.6975655552688039,
            -1.1561078954008956,
            -0.911563282304927,
            -0.9614795589164645,
            -1.118164797889566,
            0.13700406108339164,
            -0.3060888817928437,
            -0.27968537058981674,
            -0.8184633638181003
          ],
          "bias": -0.8043754817689839
        },
        {
          "weights": [
            -0.4571093936028344,
            1.160113909072185,
            0.05457770287410259,
            0.2724112839530496,
            0.47704288067480866,
            -0.5176248353806576,
            -0.2108753644211544,
            -0.38273194702129565,
            0.30083404474957054,
            0.5756423337280552,
            0.724035274102383,
            -0.4889604970702393,
            -0.8797234181015884,
            0.3381541579728972,
            -0.5557481884027842,
            0.2828291355132889,
            1.2739772204625608,
            -0.6609904267630813,
            -0.6375955555344881,
            0.461047089374208,
            -0.8400569758907799,
            -0.6250328556667178,
            -1.007307940740203,
            -0.005294218605726417
          ],
          "bias": 0.5264702410902287
        },
        {
          "weights": [
            -0.9907638258987363,
            0.017806881043055514,
            1.088655175754683,
            0.4117495840472846,
            -0.37633716662024,
            0.14760844998475214,
            -0.47942824701113446,
            0.15040414410433217,
            0.32378729869386735,
            0.9279635776685264,
            0.7397659831424048,
            -0.2297581385020215,
            0.822179590364697,
            0.5765742305735566,
            -0.08781975424270254,
            -0.782476610994546,
            -1.3398835895226267,
            0.004887897416282774,
            -0.8496347084412232,
            -0.6618994294321593,
            0.139039814374133,
            -0.7193177149911772,
            0.7108466535286734,
            -0.8085522649205855
          ],
          "bias": -0.37733489490136524
        }
      ]
    },
    {
      "nodes": [
        {
          "weights": [
            0.4554429816270385,
            -0.1777565978830998,
            0.21342019964676162,
            -0.355168018114392,
            -0.8236855483488363,
            -0.15566074125496102,
            1.0608462494174566,
            -0.6577995428120981,
            -0.34009449922003077,
            -0.9326521954785897,
            0.2336928159518588,
            -0.2702346333727467,
            -0.6884131640591303,
            -0.6820045588605639,
            -1.0512977103581798,
            0.6289848497206469
          ],
          "bias": -0.48740507073100214
        },
        {
          "weights": [
            -0.08703702369098054,
            -1.0416131662101948,
            -0.4321336441744567,
            -0.4726335606199779,
            0.959806070605266,
            0.4463636722491904,
            -0.2612117819194708,
            -1.0116216190347853,
            -0.30513705909516275,
            -0.6462550545369624,
            -0.6162185185874872,
            0.8556232830344344,
            -0.7010040755987045,
            1.0519645437796976,
            1.0709247683347418,
            0.25780551485879444
          ],
          "bias": -0.35907617155858607
        },
        {
          "weights": [
            -0.2157714856634066,
            0.5329153123675344,
            -1.3378453457572068,
            0.24982247281270373,
            0.27316084986958356,
            0.8542031531472082,
            0.8131105184135209,
            -0.6609800270786917,
            0.4492991928451956,
            1.1252310074475136,
            0.6864480177276209,
            -1.0490875859787032,
            -0.366623780469336,
            -1.4245707170695123,
            1.049968300908113,
            -0.3360340694377977
          ],
          "bias": -0.07255987463423497
        },
        {
          "weights": [
            0.3340598803860588,
            -0.9324464592453189,
            -1.2158971312687543,
            -0.2369747879041136,
            0.5265563375813879,
            -0.022431959636395105,
            0.6812063448666356,
            -0.39661864393236945,
            -0.3983342482313548,
            0.4584558437321671,
            -0.06451550626831173,
            0.702048849735123,
            0.8946340927598743,
            -0.2665802381504965,
            -0.48466761944378406,
            0.5885302152362867
          ],
          "bias": -1.068968500297474
        },
        {
          "weights": [
            1.1222703099709475,
            -0.6215239242259524,
            0.5860603716155264,
            -0.7723024973751158,
            0.9949194756800077,
            -0.7933592052909023,
            0.9641052388625746,
            -0.32544064194308253,
            0.22903818695083156,
            -1.2245886919003024,
            -1.3179802587459366,
            1.2034556241440681,
            0.04378460725971611,
            -0.4588076221173617,
            -0.5503407099722467,
            0.9391995556276292
          ],
          "bias": 0.6672825252862791
        },
        {
          "weights": [
            0.144024333012389,
            0.20707066060776141,
            -0.3574398005232011,
            -0.7039377882893585,
            -0.49223108656281855,
            -0.8797116964117214,
            1.0049438788530092,
            -1.4469208615968954,
            1.1411000301155811,
            0.6169204547593958,
            -1.115942281392785,
            1.1795443729041706,
            -0.41893097369777854,
            -0.9149637224022265,
            0.7709282129597363,
            -0.8553001269014696
          ],
          "bias": 1.2819827401811923
        },
        {
          "weights": [
            1.249959763577193,
            0.5798460527715426,
            0.5437959047489638,
            -0.02602087760243274,
            -1.2157276847873764,
            0.5768143454354042,
            0.49724837104863545,
            0.7140112972552473,
            -0.3126900884137333,
            0.311300842105214,
            0.9821889384769438,
            -1.10920002499389,
            0.021399054940064527,
            -0.5373568526214791,
            0.701423670927281,
            -0.5262796022883326
          ],
          "bias": 0.4417425379120141
        },
        {
          "weights": [
            0.48693732281269564,
            -0.6768050855498571,
            -0.11373109918463782,
            -0.9417270948141413,
            1.0208785634117532,
            -0.33275274639399943,
            0.9679980807633048,
            1.2551985742694856,
            -0.7849465152469393,
            0.028645747486325444,
            -0.8270606699319004,
            -0.31528080622829413,
            0.5172286066533388,
            1.8096705537357314,
            -1.0426531460625972,
            0.631820624786868
          ],
          "bias": 0.1072610538073965
        }
      ]
    },
    {
      "nodes": [
        {
          "weights": [
            -0.8444338622246984,
            -1.2705642623839328,
            1.0415760462392634,
            0.4184413926429259,
            -0.6049258659250583,
            -0.3580473168676766,
            -0.20745570780888692,
            1.5575870843549613
          ],
          "bias": 1.195873962855341
        },
        {
          "weights": [
            -0.06166957512229365,
            -0.052996326681728836,
            -1.3063677575435084,
            0.6382142872976293,
            0.14658077514525206,
            0.5809581895798221,
            -0.033872807577718655,
            0.5256682732371781
          ],
          "bias": -0.4452950334775895
        },
        {
          "weights": [
            0.1402201050628343,
            -0.539776075455526,
            1.0419628917352877,
            0.5503085228290217,
            0.31793308142030824,
            1.2121140903209298,
            -0.7193127873611264,
            -0.56532027985173
          ],
          "bias": -0.06547846894696177
        },
        {
          "weights": [
            -0.502411609521819,
            0.5023068988328167,
            0.6715185278836876,
            -1.1688806690979214,
            0.18592082131287146,
            -0.12683568590376904,
            -0.2795212658801406,
            -0.23737981900456787
          ],
          "bias": -0.7150685195755154
        }
      ]
    }
  ]
}