{
  "input_count": 24,
  "layers": [
    {
      "nodes": [
        {
          "weights": [
            -0.5028132421941298,
            -0.012940666981789209,
            0.0690036521082294,
            0.9885879592461828,
            0.7672378199864447,
            -0.28604057676168515,
            -0.23686412087237652,
            -0.17549586245736315,
            -0.060306684516531914,
            0.8654955001457523,
            -0.5133981411894335,
            0.3628630245571157,
            -0.35227864003637677,
            0.12999122047919182,
            0.37399147019619583,
            -0.31080110448622905,
            -0.9029780981905104,
            0.4864004559661596,
            0.35823133131784984,
            -0.6545320673661201,
            -0.5788086754328665,
            -0.2626485568702045,
            -0.9934401161338406,
            0.3432379006308637
          ],
          "bias": -0.31647503972568325
        },
        {
          "weights": [
            0.3175804099993767,
            -0.39028909271667644,
            0.8357187554592358,
            -0.44208074203114567,
            0.8655531767552931,
            -0.4467585859695503,
            -0.1266809078350382,
            0.6088533917555481,
            0.2206885985970452,
            -0.3726633974388855,
            0.15150780052710702,
            -0.906599147209501,
            -0.2707578884254158,
            -0.05354259979713698,
            -1.7100881603109581,
            -0.08842254341697883,
            -0.9137435492912509,
            -0.06291371062355791,
            -0.5093103911763124,
            0.21361835145470875,
            1.0777067912099008,
            0.5171660897163499,
            -0.6395035482169261,
            0.49984504988897094
          ],
          "bias": -0.4198902047569851
        },
        {
          "weights": [
            0.39058628796785494,
            0.8272363677674786,
            1.2349026456585737,
            -1.4747734129285706,
            0.7176397211549697,
            0.013730530704035251,
            0.7503479138949208,
            0.06807106566490154,
            -0.30542751048966554,
            0.4361570584267048,
            0.8073089544671039,
            -0.5106670469881591,
            -1.4018691556054874,
            0.4576790167966701,
            0.1880469876065622,
            -0.23348460811144772,
            -0.9021749329230987,
            -0.9710504137386429,
            -0.22141285697118251,
            0.7002378825563866,
            0.6581077884666411,
            -0.10506729419268568,
            0.7525501966715974,
            -0.7500075613573102
          ],
          "bias": -0.8010591210572796
        },
        {
          "weights": [
            -0.4387775580332513,
            0.4779510454671066,
            0.2842318390657248,
            -0.7030600873945181,
            1.1633271224961583,
            0.8014796666421491,
            -0.6017641883632998,
            -0.17891440611547596,
            0.6856459300775004,
            -0.8754078462397183,
            -0.26095209417997645,
            0.5846538547707181,
            0.7848995157855293,
            -0.2868667492152862,
            0.9539158090159187,
            0.038505382279559984,
            -0.7903052283030427,
            0.07177617933789579,
            0.16029517670046067,
            -0.8466017212311031,
            0.5795279691663308,
            -0.2728151712774559,
            0.5005987710919528,
            -0.31244506813657213
          ],
          "bias": 0.005574349852261198
        },
        {
          "weights": [
            0.034482917211509284,
            -0.7443602182743128,
            1.0428620433742317,
            -0.9421692795049972,
            -0.4937158958405234,
            0.02685971994586718,
            0.3895299089820396,
            -0.40119679521973145,
            0.2844117329761424,
            -0.3924407081447793,
            -0.8398170417993339,
            0.31671156933421374,
            0.49765125239002395,
            -0.4864162505033022,
            0.4705294444931854,
            -0.6916474018891199,
            0.09539027881126053,
            -0.511678654413354,
            0.06017531909327725,
            -0.18204944975025275,
            -0.8077996743176048,
            0.4096369558473252,
            -0.199600478649602,
            -0.21329033699692063
          ],
          "bias": 0.6892576045909593
        },
        {
          "weights": [
            0.6545035737607199,
            -0.3861644793505082,
            -0.8999163849624914,
            -0.8305536228964799,
            0.5261901911098115,
            -1.1522590434429663,
            1.2198183848814104,
            -0.9701851525451615,
            -0.6053294402918026,
            0.4682621603221461,
            0.27781243653597854,
            -0.13628577630211408,
            0.8821326159839591,
            1.0290634865064552,
            0.975343322315054,
            0.6141626079441455,
            -0.21699841453379534,
            0.7393632424422644,
            -0.34916498764161225,
            -0.22792473494283794,
            0.16570220323624557,
            -0.5256808213558417,
            -0.24609684226949255,
            -0.4938429434634132
          ],
          "bias": -0.4523120650286225
        },
        {
          "weights": [
            -0.4352445432312114,
            0.7334395922096867,
            0.6374743399316282,
            -0.20842260912038119,
            -0.5687876614961533,
            0.5937828169762425,
            -0.39656403440648785,
            -0.43167123695034376,
            0.5731257275801055,
            -0.9221722290902933,
            0.05414698429503105,
            -0.42672205049928913,
            0.6696970658099525,
            1.276314901696468,
            -0.28092218691565307,
            -0.983111540235081,
            -0.21421967677092751,
            0.6639857971459385,
            0.9869642971498309,
            -0.5379762924977503,
            1.4360035845881456,
            0.43607744645339164,
            0.15195670570662073,
            -0.7840676631691301
          ],
          "bias": 0.9346553337669183
        },
        {
          "weights": [
            -0.002213702718596583,
            -1.7306876901183132,
            0.7310979952688572,
            0.21994114228468642,
            0.1524795383757987,
            -0.2017013671219664,
            -0.2564721069821171,
            -0.811926446320669,
            -0.2449437558705048,
            0.10687597996837757,
            1.0050570276600181,
            -0.004790391335427038,
            0.8166898947527831,
            0.7068164537855096,
            -0.791419571208306,
            0.6058722370108545,
            0.2020277235414904,
            0.7721095095224617,
            0.8248470190375395,
            0.5079043341219539,
            -0.7926302798627131,
            -0.24983784774938717,
            0.6635880738882363,
            0.4113271470821821
          ],
          "bias": -0.7264351858648893
        },
        {
          "weights": [
            0.5166187993809972,
            -0.12414846731780352,
            -0.16347079454458782,
            -0.16668161345001067,
            1.2250708178326855,
            -0.8509493147512164,
            0.6522519090768717,
            0.35485655701370666,
            -0.07995291107298444,
            0.3088369404651371,
            -0.44137066953247617,
            0.08776139170762895,
            -0.2162004228450294,
            0.5030635794899987,
            -0.14823007570580443,
            -0.33511554405088667,
            0.8010411066279023,
            0.305255169982927,
            0.6298580314323862,
            -0.3922233414088727,
            -0.11908218590765868,
            -1.1635876561733631,
            0.90775565046432,
            -0.7629445812331495
          ],
          "bias": -0.7538238066580375
        },
        {
          "weights": [
            0.6631310915647547,
            -0.8740988110436488,
            -0.1595848575495034,
            -0.09499911480688703,
            -0.40535452131851774,
            -0.19346366403106016,
            0.23541393917326137,
            -0.4488258331630687,
            0.010623724919290284,
            0.32019341139325264,
            0.4106940539068048,
            0.37187545814473033,
            -1.2067615050660978,
            -0.7554846824733379,
            0.5573897191284216,
            -0.2622751745597479,
            0.6184010355725373,
            -0.36099535350464196,
            -0.06332430914941661,
            0.18470113476637662,
            0.21871979090455168,
            0.8799055212685172,
            -0.7257669354108841,
            1.68919030973291
          ],
          "bias": 0.6326047762994144
        },
        {
          "weights": [
            -0.4696103785262816,
            -0.35018555785192135,
            -0.4235965704844116,
            -0.7651900139213897,
            -0.5162179117905799,
            0.7923758005466024,
            -0.9077748007632962,
            -0.5206192877823785,
            0.4765030730097921,
            1.2621403548027916,
            -0.8366382272162264,
            0.08225400771344463,
            -0.030031021444969025,
            0.7779600625050463,
            -1.0144278532537712,
            1.1655209574207432,
            0.567556214774325,
            -0.3165309390507168,
            -0.2596700251321009,
            -0.03244718928556208,
            -0.3354862519714207,
            -0.5157037572819411,
            0.9135885540889381,
            0.16033082263614834
          ],
          "bias": -0.286380261922872
        },
        {
          "weights": [
            -0.4523221620643857,
            1.0734814308289287,
            0.4987346317840293,
            0.07392696621388661,
            0.7127792642901054,
            0.7414977499298471,
            0.046834027177004696,
            0.017167468649161466,
            -1.0374067651140872,
            0.14224640323276727,
            1.196621474562009,
            -0.5989827194222911,
            0.8375038210755262,
            0.5145827102598792,
            -1.1273969104143378,
            0.2255901560228093,
            0.9640613025154547,
            0.9562346094426606,
            0.8854179407088032,
            -0.8280606080531361,
            -0.21775460563435856,
            -0.18249198485083223,
            -0.2483134789863218,
            0.5904029980421954
          ],
          "bias": 0.618827029475649
        },
        {
          "weights": [
            0.22047535859263173,
            -0.08022761245180182,
            0.31967244615897505,
            -0.23379732098293943,
            -0.06213431052924527,
            0.5791833304931967,
            -0.82475288906079,
            -0.7761218561062215,
            -1.2983926432984976,
            -0.39069953743076435,
            -0.5121491424049629,
            -0.14372590131270202,
            0.4197455400411586,
            -0.32709310385326573,
            0.5019956700556849,
            -0.13184214136373143,
            -0.3067737313248341,
            -1.246101329619011,
            -1.0006916124859397,
            0.9380099000847467,
            -0.7552251661044972,
            -0.9337292505391184,
            0.26545283264658964,
            0.9480086643319638
          ],
          "bias": 0.13617624500775605
        },
        {
          "weights": [
            1.2177856930948874,
            -0.5318526647087906,
            0.8971702944243243,
            -0.41633644267658876,
            -0.41302168000166994,
            -0.6450333857770012,
            0.5414551339820265,
            0.23943452178230973,
            0.5863510633673709,
            0.755427291436308,
            0.5891550921596433,
            0.749883314088481,
            0.7353825535898456,
            -0.5428304090784264,
            -1.2721594728280063,
            -0.608747417990201,
            -1.2209060004873022,
            -1.1765501391626307,
            -0.7014628326858305,
            -0.5163556190021318,
            0.3631036930731959,
            -0.1660483280781626,
            0.5999001001568796,
            -0.7433247119585628
          ],
          "bias": -0.43003262945950516
        },
        {
          "weights": [
            0.08476681074631448,
            1.3132590551135597,
            0.1400426726403779,
            0.36183406321668854,
            0.07835655642185167,
            -0.2537921430591741,
            -0.03983656418649725,
            -0.2592034510906132,
            0.6897957206820957,
            0.2508329472307147,
            0.41170539719692445,
            -0.19478096410398668,
            -0.5711513253577604,
            0.31181785113365706,
            -0.7799608099106736,
            0.2932094060985605,
            0.9540737340217922,
            -0.40411737286501825,
            -0.4478088709278457,
            0.315163674355729,
            -0.8988083312242202,
            -1.015844603735314,
            -0.9864862911273307,
            0.08295067393539075
          ],
          "bias": 0.3323685112803635
        },
        {
          "weights": [
            -0.8565673908154416,
            0.15869457584801916,
            0.2526493764621268,
            0.5690230067595761,
            -0.0927873810771731,
            0.18463718678502758,
            -0.8323628072798055,
            -0.4694957476063715,
            0.21046024050360657,
            0.8150164317629347,
            0.47724260970501986,
            0.08900941027368947,
            0.9981215448991865,
            0.568722508929924,
            -0.3619156024856873,
            -0.7103443771265823,
            -1.3668452016834851,
            0.2662257522148215,
            -0.7269285341201333,
            -0.9349113177398883,
            0.18241712134043742,
            -0.671502400316274,
            0.5765349442942022,
            -0.49538811294068463
          ],
          "bias": -0.5884314078797991
        }
      ]
    },
    {
      "nodes": [
        {
          "weights": [
            1.0317688693123641,
            -0.24784655428369218,
            0.07485530643575783,
            -0.33771862223145854,
            -0.8926916273590271,
            -0.2444594445971699,
            0.5330642037720621,
            -0.6233301534350739,
            -0.2049325471241166,
            -0.9370119491668993,
            0.01723971228257145,
            -0.5676537784615951,
            -0.9015663865033684,
            -0.9078243335327626,
            -0.7842495692708629,
            0.5993750513682063
          ],
          "bias": -0.40873790016940786
        },
        {
          "weights": [
            -0.2240810753270816,
            -0.7837618811293385,
            -0.7591405433460223,
            -0.5009483622522193,
            0.8397422238073508,
            0.6035660824087032,
            -0.005908646952913099,
            -0.46520523085927845,
            -0.12121649681863202,
            -0.6789818023646278,
            -0.8800160801361792,
            0.8138168491494406,
            -0.4590926860374813,
            0.8305900645493585,
            0.9477457685880426,
            -0.3479130536312218
          ],
          "bias": -0.030426041899034112
        },
        {
          "weights": [
            -0.5728422573211853,
            0.593126318705756,
            -1.5268372690558332,
            0.16186168790965405,
            0.6010002336324798,
            0.809899791801012,
            0.6729399520908943,
            -0.7756683737771248,
            0.11998245399976787,
            0.4352532838358671,
            0.5121758602124938,
            -1.0231447227185588,
            0.023996561345640946,
            -1.4650132525010584,
            1.0570895869268577,
            -0.25081124252581244
          ],
          "bias": 0.24797216638459324
        },
        {
          "weights": [
            0.31622153420748483,
            -0.8842120030367153,
            -0.915742806414822,
            -0.38192384877148994,
            0.7507932963024856,
            0.08665527827997058,
            0.9545845495369414,
            0.0417836597114524,
            -0.5649009822070038,
            0.9947714136142647,
            -0.10412029780940335,
            0.4555172540083777,
            0.42773466786326675,
            -0.25880097286864373,
            -0.4853022334141127,
            0.4810409464665954
          ],
          "bias": -0.7846742456402542
        },
        {
          "weights": [
            1.2532663178029921,
            -0.6075929613170628,
            0.8889129803340985,
            -1.0301034748258033,
            0.6153856535251974,
            -0.8198293000184995,
            0.6423773406254224,
            -0.15236643757738005,
            0.23226116244053363,
            -1.5456292456810854,
            -1.0301068304246634,
            0.9281722440949668,
            -0.04369057896889664,
            -0.23092001942336865,
            -0.9165929236837693,
            0.28348343256491404
          ],
          "bias": 0.8486131189518162
        },
        {
          "weights": [
            -0.032393324028202525,
            0.4841144235394169,
            -0.42113180783897375,
            -0.7318107864368936,
            -0.6765409251721287,
            -0.6188637914667495,
            1.0163148345773063,
            -1.4826713640061988,
            0.6338266251674934,
            0.41032730716615595,
            -0.9082494874311451,
            0.6697583740395505,
            -0.5254504631250074,
            -0.8426380534264089,
            0.5449981642100716,
            -0.9640179538425564
          ],
          "bias": 1.0297996943573475
        },
        {
          "weights": [
            0.9143666118748721,
            0.5329173230245405,
            0.2411339405113432,
            0.13982370457458937,
            -0.8148156223578766,
            0.4792762080093971,
            0.7811024339622501,
            0.09431805912002497,
            -0.18921206575946092,
            0.41312425270023545,
            1.0013284452634426,
            -0.37593746698063585,
            0.14201195289238056,
            -0.3453786738295249,
            0.43013236908129826,
            -0.02522634464124722
          ],
          "bias": 0.6933920591264322
        },
        {
          "weights": [
            0.7138826224469422,
            -0.5972517339727847,
            -0.06071874606933327,
            -0.8644832330056773,
            0.5962556161812456,
            -0.5307030884006936,
            0.8533124652081379,
            0.8857863544048391,
            -0.9137493024722461,
            -0.13965641064859063,
            -0.16192512584137736,
            -0.2746752110514527,
            0.11487261271239575,
            1.0381545315705318,
            -0.8222911775609365,
            0.9717611103332584
          ],
          "bias": -0.17330843236126675
        }
      ]
    },
    {
      "nodes": [
        {
          "weights": [
            -0.3575326396049661,
            -0.8690331448028923,
            0.9609522790892765,
            0.7504623841707795,
            -0.8604631095281056,
            -0.25086034711359,
            -0.3334463791564297,
            1.2098101837900561
          ],
          "bias": 0.8250397133733169
        },
        {
          "weights": [
            -0.31302722088501195,
            -0.39329700424952924,
            -1.1874298740194817,
            0.8827952945298398,
            -0.2131654446683344,
            0.5477960876676101,
            -0.052992211409653295,
            0.6339674191264848
          ],
          "bias": -0.6188336119659904
        },
        {
          "weights": [
            0.1379459970114762,
            -0.9778508905356629,
            1.2311350194428832,
            0.4567408237668651,
            -0.04998069375415147,
            1.154623132360452,
            -0.38602591966471245,
            -0.34440764757235115
          ],
          "bias": -0.07762377917321456
        },
        {
          "weights": [
            -0.10344708864141092,
            0.7582776343125076,
            1.0221750606484168,
            -1.0304676610934833,
            0.30440909748494677,
            0.25402640627060596,
            -0.3622555779414289,
            -0.33135986915211313
          ],
          "bias": -0.5089110458267596
        }
      ]
    }
  ]
}